{"learner":{"attributes":{"scikit_learn":"{\"_estimator_type\": \"classifier\"}"},"feature_names":[],"feature_types":[],"gradient_booster":{"model":{"cats":{"enc":[],"feature_segments":[],"sorted_idx":[]},"gbtree_model_param":{"num_parallel_tree":"1","num_trees":"100"},"iteration_indptr":[0,1,2,3,4,5,6,7,8,9,10,11,12,13,14,15,16,17,18,19,20,21,22,23,24,25,26,27,28,29,30,31,32,33,34,35,36,37,38,39,40,41,42,43,44,45,46,47,48,49,50,51,52,53,54,55,56,57,58,59,60,61,62,63,64,65,66,67,68,69,70,71,72,73,74,75,76,77,78,79,80,81,82,83,84,85,86,87,88,89,90,91,92,93,94,95,96,97,98,99,100],"tree_info":[0,0,0,0,0,0,0,0,0,0,0,0,0,0,0,0,0,0,0,0,0,0,0,0,0,0,0,0,0,0,0,0,0,0,0,0,0,0,0,0,0,0,0,0,0,0,0,0,0,0,0,0,0,0,0,0,0,0,0,0,0,0,0,0,0,0,0,0,0,0,0,0,0,0,0,0,0,0,0,0,0,0,0,0,0,0,0,0,0,0,0,0,0,0,0,0,0,0,0,0],"trees":[{"base_weights":[3.9885688E-4,1.1864394E0,-2.2252476E0,-8.138189E-2,1.3493745E0,-2.578982E0,5.3796418E-2,2.1401239E-3,1.4557552E-1,-6.111729E-2,-2.70506E-1],"categories":[],"categories_nodes":[],"categories_segments":[],"categories_sizes":[],"default_left":[0,0,0,0,0,0,0,0,0,0,0],"id":0,"left_children":[1,3,5,-1,7,9,-1,-1,-1,-1,-1],"loss_changes":[1.1672367E2,1.0499443E1,1.6412827E1,0E0,3.7901611E0,1.7705383E0,0E0,0E0,0E0,0E0,0E0],"parents":[2147483647,0,0,1,1,2,2,4,4,5,5],"right_children":[2,4,6,-1,8,10,-1,-1,-1,-1,-1],"split_conditions":[1.1070809E0,2.0507932E-2,3.1887214E0,-8.138189E-2,1.1393831E-1,1.0742925E0,5.3796418E-2,2.1401239E-3,1.4557552E-1,-6.111729E-2,-2.70506E-1],"split_indices":[515,22,256,0,208,65,0,0,0,0,0],"split_type":[0,0,0,0,0,0,0,0,0,0,0],"sum_hessian":[4.2218266E1,2.784609E1,1.4372175E1,1.7965219E0,2.6049568E1,1.2800219E1,1.5719566E0,2.0210872E0,2.402848E1,1.1228262E0,1.1677392E1],"tree_param":{"num_deleted":"0","num_feature":"517","num_nodes":"11","size_leaf_vector":"1"}},{"base_weights":[1.04272105E-2,1.1066816E0,-1.8930883E0,-5.0246745E-1,1.3079972E0,-2.1535847E0,7.835751E-2,8.002897E-2,-1.3739021E-1,1.386246E-1,-1.726889E-2,-8.428968E-3,-2.3276973E-1],"categories":[],"categories_nodes":[],"categories_segments":[],"categories_sizes":[],"default_left":[0,0,0,0,0,0,0,0,0,0,0,0,0],"id":1,"left_children":[1,3,5,7,9,11,-1,-1,-1,-1,-1,-1,-1],"loss_changes":[8.824153E1,9.347839E0,1.2464066E1,5.3062983E0,3.0341759E0,4.9745407E0,0E0,0E0,0E0,0E0,0E0,0E0,0E0],"parents":[2147483647,0,0,1,1,2,2,3,3,4,4,5,5],"right_children":[2,4,6,8,10,12,-1,-1,-1,-1,-1,-1,-1],"split_conditions":[1.027651E0,2.639757E-2,1.0659153E0,5.760959E-1,1.1335031E0,1.6858833E-1,7.835751E-2,8.002897E-2,-1.3739021E-1,1.386246E-1,-1.726889E-2,-8.428968E-3,-2.3276973E-1],"split_indices":[515,22,349,299,95,286,0,0,0,0,0,0,0],"split_type":[0,0,0,0,0,0,0,0,0,0,0,0,0],"sum_hessian":[4.028286E1,2.5827274E1,1.4455585E1,2.7055395E0,2.3121735E1,1.335161E1,1.103974E0,1.1171257E0,1.5884136E0,2.202175E1,1.0999849E0,1.1514114E0,1.2200199E1],"tree_param":{"num_deleted":"0","num_feature":"517","num_nodes":"13","size_leaf_vector":"1"}},{"base_weights":[-5.082551E-2,1.133912E0,-1.6261162E0,1.2896357E0,-6.1604094E-2,-1.9589732E0,6.509402E-2,2.2804383E-2,1.3318534E-1,-2.083505E-1,-5.4430403E-2],"categories":[],"categories_nodes":[],"categories_segments":[],"categories_sizes":[],"default_left":[0,0,0,0,0,0,0,0,0,0,0],"id":2,"left_children":[1,3,5,7,-1,9,-1,-1,-1,-1,-1],"loss_changes":[7.5592354E1,7.1011105E0,1.4442692E1,6.6322327E-1,0E0,1.5801506E0,0E0,0E0,0E0,0E0,0E0],"parents":[2147483647,0,0,1,1,2,2,3,3,5,5],"right_children":[2,4,6,8,-1,10,-1,-1,-1,-1,-1],"split_conditions":[7.507638E-1,2.1961915E0,3.1887214E0,3.788588E-2,-6.1604094E-2,1.7298822E0,6.509402E-2,2.2804383E-2,1.3318534E-1,-2.083505E-1,-5.4430403E-2],"split_indices":[512,501,256,7,0,330,0,0,0,0,0],"split_type":[0,0,0,0,0,0,0,0,0,0,0],"sum_hessian":[3.8515755E1,2.214285E1,1.6372906E1,2.0574982E1,1.5678686E0,1.44066515E1,1.9662545E0,1.0317812E0,1.95432E1,1.2806521E1,1.6001298E0],"tree_param":{"num_deleted":"0","num_feature":"517","num_nodes":"11","size_leaf_vector":"1"}},{"base_weights":[-7.796278E-3,1.0411633E0,-1.5364321E0,1.2131089E0,-5.73393E-2,-1.795207E0,5.946363E-2,-2.1679759E-2,1.2925684E-1,-1.8818371E-1,-3.9979056E-2],"categories":[],"categories_nodes":[],"categories_segments":[],"categories_sizes":[],"default_left":[0,0,0,0,0,0,0,0,0,0,0],"id":3,"left_children":[1,3,5,7,-1,9,-1,-1,-1,-1,-1],"loss_changes":[6.67854E1,7.554104E0,1.041357E1,2.8535118E0,0E0,1.1046257E0,0E0,0E0,0E0,0E0,0E0],"parents":[2147483647,0,0,1,1,2,2,3,3,5,5],"right_children":[2,4,6,8,-1,10,-1,-1,-1,-1,-1],"split_conditions":[1.027651E0,2.2726207E0,1.4681474E0,6.3078564E-1,-5.73393E-2,6.9060856E-1,5.946363E-2,-2.1679759E-2,1.2925684E-1,-1.8818371E-1,-3.9979056E-2],"split_indices":[515,501,312,366,0,42,0,0,0,0,0],"split_type":[0,0,0,0,0,0,0,0,0,0,0],"sum_hessian":[3.965273E1,2.3705061E1,1.5947669E1,2.164823E1,2.0568316E0,1.4361375E1,1.5862938E0,1.0486658E0,2.0599564E1,1.31937E1,1.167675E0],"tree_param":{"num_deleted":"0","num_feature":"517","num_nodes":"11","size_leaf_vector":"1"}},{"base_weights":[2.578152E-2,9.392534E-1,-1.3113933E0,-1.781471E-1,1.2488353E-1,-1.5654765E0,5.7896167E-2,7.810286E-1,-1.2688434E-1,-1.3071999E-2,-1.7195182E-1,1.9818883E-2,9.127714E-2],"categories":[],"categories_nodes":[],"categories_segments":[],"categories_sizes":[],"default_left":[0,0,0,0,0,0,0,0,0,0,0,0,0],"id":4,"left_children":[1,3,5,7,-1,9,-1,11,-1,-1,-1,-1,-1],"loss_changes":[5.0833317E1,8.770023E0,9.023043E0,7.5146685E0,0E0,3.1272469E0,0E0,1.21394396E-1,0E0,0E0,0E0,0E0,0E0],"parents":[2147483647,0,0,1,1,2,2,3,3,5,5,7,7],"right_children":[2,4,6,8,-1,10,-1,12,-1,-1,-1,-1,-1],"split_conditions":[1.0124841E0,6.730713E-1,3.1887214E0,3.7407482E-1,1.2488353E-1,8.5761106E-1,5.7896167E-2,3.0560844E-2,-1.2688434E-1,-1.3071999E-2,-1.7195182E-1,1.9818883E-2,9.127714E-2],"split_indices":[512,54,256,14,0,169,0,293,0,0,0,0,0],"split_type":[0,0,0,0,0,0,0,0,0,0,0,0,0],"sum_hessian":[3.960806E1,2.3709105E1,1.5898953E1,5.2357645E0,1.847334E1,1.4166668E1,1.7322855E0,2.9369135E0,2.2988513E0,1.5527585E0,1.2613909E1,1.0031712E0,1.9337424E0],"tree_param":{"num_deleted":"0","num_feature":"517","num_nodes":"13","size_leaf_vector":"1"}},{"base_weights":[-1.9249965E-2,9.412319E-1,-1.347417E0,-8.1770405E-2,1.1085755E0,-1.5318705E0,7.529202E-2,-2.9953865E-2,1.2235148E-1,-1.621375E-1,-2.118472E-2],"categories":[],"categories_nodes":[],"categories_segments":[],"categories_sizes":[],"default_left":[0,0,0,0,0,0,0,0,0,0,0],"id":5,"left_children":[1,3,5,-1,7,9,-1,-1,-1,-1,-1],"loss_changes":[5.266347E1,7.9617615E0,7.863098E0,0E0,3.9775524E0,1.5764809E0,0E0,0E0,0E0,0E0,0E0],"parents":[2147483647,0,0,1,1,2,2,4,4,5,5],"right_children":[2,4,6,-1,8,10,-1,-1,-1,-1,-1],"split_conditions":[1.027651E0,2.0507932E-2,3.1887214E0,-8.1770405E-2,1.1393831E-1,1.4294839E0,7.529202E-2,-2.9953865E-2,1.2235148E-1,-1.621375E-1,-2.118472E-2],"split_indices":[515,22,256,0,208,219,0,0,0,0,0],"split_type":[0,0,0,0,0,0,0,0,0,0,0],"sum_hessian":[3.9288498E1,2.296928E1,1.6319216E1,1.6578071E0,2.1311474E1,1.5250553E1,1.0686623E0,1.4870969E0,1.9824377E1,1.4068353E1,1.1822003E0],"tree_param":{"num_deleted":"0","num_feature":"517","num_nodes":"11","size_leaf_vector":"1"}},{"base_weights":[1.24261715E-1,9.119933E-1,-1.1543579E0,-8.521332E-2,1.051288E0,-1.429148E-1,5.349214E-2,-2.2355264E-2,1.1558894E0,1.7661622E-2,1.1989462E-1],"categories":[],"categories_nodes":[],"categories_segments":[],"categories_sizes":[],"default_left":[0,0,0,0,0,0,0,0,0,0,0],"id":6,"left_children":[1,3,5,-1,7,-1,-1,-1,9,-1,-1],"loss_changes":[3.6773407E1,6.425749E0,7.2452583E0,0E0,3.0993652E0,0E0,0E0,0E0,6.252556E-1,0E0,0E0],"parents":[2147483647,0,0,1,1,2,2,4,4,8,8],"right_children":[2,4,6,-1,8,-1,-1,-1,10,-1,-1],"split_conditions":[1.1070809E0,1.5478538E-2,3.1847186E0,-8.521332E-2,5.162759E-2,-1.429148E-1,5.349214E-2,-2.2355264E-2,1.2144795E-1,1.7661622E-2,1.1989462E-1],"split_indices":[515,22,256,0,312,0,0,0,367,0,0],"split_type":[0,0,0,0,0,0,0,0,0,0,0],"sum_hessian":[3.446497E1,2.1503708E1,1.2961262E1,1.1991631E0,2.0304544E1,1.1280316E1,1.6809459E0,1.4534372E0,1.8851107E1,1.0088148E0,1.7842293E1],"tree_param":{"num_deleted":"0","num_feature":"517","num_nodes":"11","size_leaf_vector":"1"}},{"base_weights":[1.14401504E-1,9.4002026E-1,-1.1154412E0,-6.526819E-2,1.0901259E0,-1.3152707E0,7.197926E-2,2.0199424E-2,1.16778694E-1,-1.1924319E-2,-1.422232E-1],"categories":[],"categories_nodes":[],"categories_segments":[],"categories_sizes":[],"default_left":[0,0,0,0,0,0,0,0,0,0,0],"id":7,"left_children":[1,3,5,-1,7,9,-1,-1,-1,-1,-1],"loss_changes":[3.552025E1,5.697544E0,6.1154175E0,0E0,1.1045322E0,1.5016212E0,0E0,0E0,0E0,0E0,0E0],"parents":[2147483647,0,0,1,1,2,2,4,4,5,5],"right_children":[2,4,6,-1,8,10,-1,-1,-1,-1,-1],"split_conditions":[1.1070809E0,5.3584255E-2,3.1887214E0,-6.526819E-2,1.1009724E-2,3.99121E-2,7.197926E-2,2.0199424E-2,1.16778694E-1,-1.1924319E-2,-1.422232E-1],"split_indices":[515,349,256,0,241,216,0,0,0,0,0],"split_type":[0,0,0,0,0,0,0,0,0,0,0],"sum_hessian":[3.2949528E1,1.9855667E1,1.3093861E1,1.4217696E0,1.8433897E1,1.2063634E1,1.0302263E0,1.7718618E0,1.6662035E1,1.1638986E0,1.0899735E1],"tree_param":{"num_deleted":"0","num_feature":"517","num_nodes":"11","size_leaf_vector":"1"}},{"base_weights":[1.6709834E-2,8.570357E-1,-1.105013E0,-6.285957E-2,1.0086529E0,4.8839364E-2,-1.2696201E0,-6.1906107E-2,1.14109494E-1,-6.8202526E-3,-1.3853338E-1],"categories":[],"categories_nodes":[],"categories_segments":[],"categories_sizes":[],"default_left":[0,0,0,0,0,0,0,0,0,0,0],"id":8,"left_children":[1,3,5,-1,7,-1,9,-1,-1,-1,-1],"loss_changes":[3.2150303E1,5.0237646E0,4.453245E0,0E0,4.6013985E0,0E0,1.7856178E0,0E0,0E0,0E0,0E0],"parents":[2147483647,0,0,1,1,2,2,4,4,6,6],"right_children":[2,4,6,-1,8,-1,10,-1,-1,-1,-1],"split_conditions":[1.1070809E0,2.0507932E-2,1.43109E-1,-6.285957E-2,5.3584255E-2,4.8839364E-2,1.625307E-1,-6.1906107E-2,1.14109494E-1,-6.8202526E-3,-1.3853338E-1],"split_indices":[515,22,297,0,349,0,497,0,0,0,0],"split_type":[0,0,0,0,0,0,0,0,0,0,0],"sum_hessian":[3.210296E1,1.8488483E1,1.3614472E1,1.4207946E0,1.706769E1,1.0905789E0,1.2523894E1,1.0077862E0,1.6059904E1,1.2398932E0,1.1284E1],"tree_param":{"num_deleted":"0","num_feature":"517","num_nodes":"11","size_leaf_vector":"1"}},{"base_weights":[-6.386516E-2,7.4056816E-1,-1.0744972E0,-4.7445038E-1,1.0079668E0,-1.269832E0,4.39257E-2,7.20567E-2,-1.3383667E-1,-2.4684487E-2,1.1107425E-1,-3.5194203E-2,-1.3168202E-1],"categories":[],"categories_nodes":[],"categories_segments":[],"categories_sizes":[],"default_left":[0,0,0,0,0,0,0,0,0,0,0,0,0],"id":9,"left_children":[1,3,5,7,9,11,-1,-1,-1,-1,-1,-1,-1],"loss_changes":[2.7387087E1,6.5875435E0,4.964802E0,5.168106E0,2.3030663E0,1.16989136E-1,0E0,0E0,0E0,0E0,0E0,0E0,0E0],"parents":[2147483647,0,0,1,1,2,2,3,3,4,4,5,5],"right_children":[2,4,6,8,10,12,-1,-1,-1,-1,-1,-1,-1],"split_conditions":[1.1070809E0,1.077876E-1,3.1887214E0,2.7781277E0,2.3389237E-2,7.125934E-2,4.39257E-2,7.20567E-2,-1.3383667E-1,-2.4684487E-2,1.1107425E-1,-3.5194203E-2,-1.3168202E-1],"split_indices":[515,295,256,83,485,51,0,0,0,0,0,0,0],"split_type":[0,0,0,0,0,0,0,0,0,0,0,0,0],"sum_hessian":[3.1708246E1,1.7804005E1,1.3904241E1,3.0718174E0,1.4732187E1,1.2457821E1,1.4464198E0,1.3585392E0,1.7132782E0,1.0091735E0,1.3723014E1,1.0201304E0,1.1437691E1],"tree_param":{"num_deleted":"0","num_feature":"517","num_nodes":"13","size_leaf_vector":"1"}},{"base_weights":[3.4272995E-2,8.025431E-1,-9.1791433E-1,-3.6109224E-1,1.0021675E0,-1.1536031E0,7.882463E-2,-9.996889E-2,3.880935E-2,-1.8111419E-2,1.09651886E-1,4.9554086E-3,-1.2604569E-1],"categories":[],"categories_nodes":[],"categories_segments":[],"categories_sizes":[],"default_left":[0,0,0,0,0,0,0,0,0,0,0,0,0],"id":10,"left_children":[1,3,5,7,9,11,-1,-1,-1,-1,-1,-1,-1],"loss_changes":[2.3783976E1,4.5361624E0,6.754244E0,1.9986112E0,1.94065E0,1.7565098E0,0E0,0E0,0E0,0E0,0E0,0E0,0E0],"parents":[2147483647,0,0,1,1,2,2,3,3,4,4,5,5],"right_children":[2,4,6,8,10,12,-1,-1,-1,-1,-1,-1,-1],"split_conditions":[1.1070809E0,1.1393831E-1,3.1887214E0,5.078341E-1,6.8488814E-2,2.1210097E-1,7.882463E-2,-9.996889E-2,3.880935E-2,-1.8111419E-2,1.09651886E-1,4.9554086E-3,-1.2604569E-1],"split_indices":[515,208,256,137,69,104,0,0,0,0,0,0,0],"split_type":[0,0,0,0,0,0,0,0,0,0,0,0,0],"sum_hessian":[3.0505323E1,1.6970154E1,1.353517E1,2.3665257E0,1.4603628E1,1.2176913E1,1.3582561E0,1.0970482E0,1.2694774E0,1.0105484E0,1.359308E1,1.0369751E0,1.1139938E1],"tree_param":{"num_deleted":"0","num_feature":"517","num_nodes":"13","size_leaf_vector":"1"}},{"base_weights":[4.2142076E-3,6.5858644E-1,-8.800617E-1,-1.3871682E-1,1.0463398E-1,-1.0976117E0,5.7323933E-2,-1.0215922E-1,6.831679E-1,-1.1876277E-1,-1.9105192E-2,7.924873E-2,1.9911123E-2],"categories":[],"categories_nodes":[],"categories_segments":[],"categories_sizes":[],"default_left":[0,0,0,0,0,0,0,0,0,0,0,0,0],"id":11,"left_children":[1,3,5,7,-1,9,-1,-1,11,-1,-1,-1,-1],"loss_changes":[1.630005E1,5.1490035E0,4.417548E0,5.181445E0,0E0,6.5158844E-1,0E0,0E0,4.3249846E-2,0E0,0E0,0E0,0E0],"parents":[2147483647,0,0,1,1,2,2,3,3,5,5,8,8],"right_children":[2,4,6,8,-1,10,-1,-1,12,-1,-1,-1,-1],"split_conditions":[1.1070809E0,6.730713E-1,1.4681474E0,1.1726658E0,1.0463398E-1,3.119466E0,5.7323933E-2,-1.0215922E-1,1.4543248E0,-1.1876277E-1,-1.9105192E-2,7.924873E-2,1.9911123E-2],"split_indices":[515,54,312,310,0,256,0,0,376,0,0,0,0],"split_type":[0,0,0,0,0,0,0,0,0,0,0,0,0],"sum_hessian":[2.6167671E1,1.51854925E1,1.0982179E1,5.178876E0,1.0006617E1,9.765143E0,1.2170348E0,2.3796496E0,2.7992265E0,8.601071E0,1.1640725E0,1.7637273E0,1.0354991E0],"tree_param":{"num_deleted":"0","num_feature":"517","num_nodes":"13","size_leaf_vector":"1"}},{"base_weights":[-1.5264331E-2,1.01081185E-1,-3.771076E-1,6.58379E-1,-8.550964E-1,9.183515E-2,-2.1385748E-2,-1.0942488E0,-9.075628E-2,-8.279478E-3,-1.20051816E-1,-7.84446E-2,7.126595E-2],"categories":[],"categories_nodes":[],"categories_segments":[],"categories_sizes":[],"default_left":[0,0,0,0,0,0,0,0,0,0,0,0,0],"id":12,"left_children":[1,-1,3,5,7,-1,-1,9,11,-1,-1,-1,-1],"loss_changes":[1.0275778E1,0E0,1.0675037E1,1.7876363E0,2.535307E0,0E0,0E0,1.0708857E0,3.0811226E0,0E0,0E0,0E0,0E0],"parents":[2147483647,0,0,2,2,3,3,4,4,7,7,8,8],"right_children":[2,-1,4,6,8,-1,-1,10,12,-1,-1,-1,-1],"split_conditions":[-1.7479032E-1,1.01081185E-1,2.7243385E-1,4.5819676E-1,-1.736543E-1,9.183515E-2,-2.1385748E-2,4.7494024E-2,1.077876E-1,-8.279478E-3,-1.20051816E-1,-7.84446E-2,7.126595E-2],"split_indices":[514,0,498,187,514,0,0,378,295,0,0,0,0],"split_type":[0,0,0,0,0,0,0,0,0,0,0,0,0],"sum_hessian":[2.5650038E1,6.219615E0,1.9430422E1,6.017365E0,1.3413057E1,4.594956E0,1.4224088E0,9.887696E0,3.5253606E0,1.1092403E0,8.778456E0,1.9045419E0,1.6208189E0],"tree_param":{"num_deleted":"0","num_feature":"517","num_nodes":"13","size_leaf_vector":"1"}},{"base_weights":[1.0307667E-1,8.7469274E-1,-6.906659E-1,-3.9504822E-2,1.0354693E-1,-9.5651305E-1,7.545861E-2,1.872872E-2,-1.12325326E-1],"categories":[],"categories_nodes":[],"categories_segments":[],"categories_sizes":[],"default_left":[0,0,0,0,0,0,0,0,0],"id":13,"left_children":[1,3,5,-1,-1,7,-1,-1,-1],"loss_changes":[1.530793E1,2.9842834E0,5.483328E0,0E0,0E0,2.2908058E0,0E0,0E0,0E0],"parents":[2147483647,0,0,1,1,2,2,5,5],"right_children":[2,4,6,-1,-1,8,-1,-1,-1],"split_conditions":[7.507638E-1,2.0507932E-2,3.1887214E0,-3.9504822E-2,1.0354693E-1,4.467645E-2,7.545861E-2,1.872872E-2,-1.12325326E-1],"split_indices":[512,22,256,0,0,155,0,0,0],"split_type":[0,0,0,0,0,0,0,0,0],"sum_hessian":[2.3007612E1,1.16147E1,1.1392912E1,1.1416146E0,1.0473085E1,9.908466E0,1.484446E0,1.2449771E0,8.663489E0],"tree_param":{"num_deleted":"0","num_feature":"517","num_nodes":"9","size_leaf_vector":"1"}},{"base_weights":[5.6907445E-2,6.8859655E-1,-7.044213E-1,-6.7810155E-2,8.8218653E-1,-9.522108E-1,6.92544E-2,-3.2027986E-2,1.02303565E-1,-1.1128147E-1,1.6347304E-2],"categories":[],"categories_nodes":[],"categories_segments":[],"categories_sizes":[],"default_left":[0,0,0,0,0,0,0,0,0,0,0],"id":14,"left_children":[1,3,5,-1,7,9,-1,-1,-1,-1,-1],"loss_changes":[1.1500814E1,4.044152E0,4.426014E0,0E0,2.3334427E0,1.9133539E0,0E0,0E0,0E0,0E0,0E0],"parents":[2147483647,0,0,1,1,2,2,4,4,5,5],"right_children":[2,4,6,-1,8,10,-1,-1,-1,-1,-1],"split_conditions":[9.029611E-1,1.5619493E-2,3.1847186E0,-6.7810155E-2,1.3379842E-1,6.2495834E-1,6.92544E-2,-3.2027986E-2,1.02303565E-1,-1.1128147E-1,1.6347304E-2],"split_indices":[515,22,256,0,367,94,0,0,0,0,0],"split_type":[0,0,0,0,0,0,0,0,0,0,0],"sum_hessian":[2.1905437E1,1.2024233E1,9.881205E0,1.1813587E0,1.0842875E1,8.662965E0,1.218239E0,1.0033221E0,9.839552E0,7.575094E0,1.087871E0],"tree_param":{"num_deleted":"0","num_feature":"517","num_nodes":"11","size_leaf_vector":"1"}},{"base_weights":[-5.6123484E-2,6.4759964E-1,-8.685783E-1,9.2575294E-1,-4.1663325E-1,-1.0876073E-1,1.8138384E-2,1.0581425E-2,1.0040917E-1,-8.8068016E-2,3.1883948E-2],"categories":[],"categories_nodes":[],"categories_segments":[],"categories_sizes":[],"default_left":[0,0,0,0,0,0,0,0,0,0,0],"id":15,"left_children":[1,3,5,7,9,-1,-1,-1,-1,-1,-1],"loss_changes":[1.3393712E1,4.1151733E0,2.6909876E0,5.5525875E-1,1.4071302E0,0E0,0E0,0E0,0E0,0E0,0E0],"parents":[2147483647,0,0,1,1,2,2,3,3,4,4],"right_children":[2,4,6,8,10,-1,-1,-1,-1,-1,-1],"split_conditions":[1.1070809E0,2.3612802E0,1.4881146E0,1.7692491E-1,5.7658214E-2,-1.0876073E-1,1.8138384E-2,1.0581425E-2,1.0040917E-1,-8.8068016E-2,3.1883948E-2],"split_indices":[515,34,423,180,191,0,0,0,0,0,0],"split_type":[0,0,0,0,0,0,0,0,0,0,0],"sum_hessian":[2.1442276E1,1.1598728E1,9.843548E0,9.298537E0,2.300191E0,8.114878E0,1.7286704E0,1.0159321E0,8.282605E0,1.289283E0,1.0109079E0],"tree_param":{"num_deleted":"0","num_feature":"517","num_nodes":"11","size_leaf_vector":"1"}},{"base_weights":[-4.3869005E-3,-7.722319E-1,4.874944E-1,-1.0214789E0,1.6131798E-2,-3.0601352E-1,8.0761164E-1,-1.19079374E-1,-1.3266386E-2,-7.4468814E-2,4.9186256E-2,9.4894074E-2,3.1882988E-3],"categories":[],"categories_nodes":[],"categories_segments":[],"categories_sizes":[],"default_left":[0,0,0,0,0,0,0,0,0,0,0,0,0],"id":16,"left_children":[1,3,5,7,-1,9,11,-1,-1,-1,-1,-1,-1],"loss_changes":[7.914038E0,2.0680447E0,3.4928348E0,8.340993E-1,0E0,1.9056824E0,9.980335E-1,0E0,0E0,0E0,0E0,0E0,0E0],"parents":[2147483647,0,0,1,1,2,2,3,3,5,5,6,6],"right_children":[2,4,6,8,-1,10,12,-1,-1,-1,-1,-1,-1],"split_conditions":[9.293999E-1,5.216051E-1,9.554967E-2,7.1188897E-1,1.6131798E-2,9.540079E-1,4.4665807E-1,-1.19079374E-1,-1.3266386E-2,-7.4468814E-2,4.9186256E-2,9.4894074E-2,3.1882988E-3],"split_indices":[120,369,257,478,0,123,466,0,0,0,0,0,0],"split_type":[0,0,0,0,0,0,0,0,0,0,0,0,0],"sum_hessian":[1.8957125E1,7.1795797E0,1.1777546E1,5.5923095E0,1.5872703E0,3.3981802E0,8.379366E0,4.4120765E0,1.1802329E0,2.2356663E0,1.162514E0,6.8991313E0,1.4802346E0],"tree_param":{"num_deleted":"0","num_feature":"517","num_nodes":"13","size_leaf_vector":"1"}},{"base_weights":[-6.010563E-2,5.9630305E-1,-8.0303216E-1,9.6879266E-2,-1.9137858E-1,4.822884E-2,-1.0144024E0,-7.862176E-1,6.885918E-2,-2.3953537E-2,-1.0827102E-1,-2.5301531E-2,-9.5651515E-2],"categories":[],"categories_nodes":[],"categories_segments":[],"categories_sizes":[],"default_left":[0,0,0,0,0,0,0,0,0,0,0,0,0],"id":17,"left_children":[1,3,5,-1,7,-1,9,11,-1,-1,-1,-1,-1],"loss_changes":[1.0406143E1,3.5248046E0,3.199295E0,0E0,2.8912494E0,0E0,2.1112823E-1,4.3608308E-2,0E0,0E0,0E0,0E0,0E0],"parents":[2147483647,0,0,1,1,2,2,4,4,6,6,7,7],"right_children":[2,4,6,-1,8,-1,10,12,-1,-1,-1,-1,-1],"split_conditions":[1.1070809E0,7.050702E-1,3.1225687E-2,9.6879266E-2,3.903376E-2,4.822884E-2,2.276437E-1,6.860245E-1,6.885918E-2,-2.3953537E-2,-1.0827102E-1,-2.5301531E-2,-9.5651515E-2],"split_indices":[515,289,231,0,368,0,498,273,0,0,0,0,0],"split_type":[0,0,0,0,0,0,0,0,0,0,0,0,0],"sum_hessian":[1.9356852E1,1.0381603E1,8.975249E0,6.892334E0,3.4892693E0,1.0865185E0,7.8887305E0,2.1455019E0,1.3437673E0,1.0041865E0,6.8845444E0,1.1210899E0,1.024412E0],"tree_param":{"num_deleted":"0","num_feature":"517","num_nodes":"13","size_leaf_vector":"1"}},{"base_weights":[8.204752E-2,7.527497E-1,-6.5767956E-1,9.836873E-2,-3.246614E-2,3.549547E-2,-8.96069E-1,-2.3177199E-3,-1.0235464E-1],"categories":[],"categories_nodes":[],"categories_segments":[],"categories_sizes":[],"default_left":[0,0,0,0,0,0,0,0,0],"id":18,"left_children":[1,3,5,-1,-1,-1,7,-1,-1],"loss_changes":[1.008754E1,2.958434E0,2.6663609E0,0E0,0E0,0E0,8.840294E-1,0E0,0E0],"parents":[2147483647,0,0,1,1,2,2,6,6],"right_children":[2,4,6,-1,-1,-1,8,-1,-1],"split_conditions":[1.027651E0,2.2726207E0,1.9584458E-1,9.836873E-2,-3.246614E-2,3.549547E-2,1.049554E-1,-2.3177199E-3,-1.0235464E-1],"split_indices":[515,501,316,0,0,0,121,0,0],"split_type":[0,0,0,0,0,0,0,0,0],"sum_hessian":[1.8334337E1,9.606567E0,8.727771E0,7.9825406E0,1.6240264E0,1.5699489E0,7.1578217E0,1.0627226E0,6.0950994E0],"tree_param":{"num_deleted":"0","num_feature":"517","num_nodes":"9","size_leaf_vector":"1"}},{"base_weights":[-1.8635774E-2,6.2599754E-1,-6.779019E-1,8.893236E-1,-4.2632774E-2,-9.461958E-1,4.4362262E-2,2.1678029E-2,9.540772E-2,-1.006664E-1,-2.6759092E-2],"categories":[],"categories_nodes":[],"categories_segments":[],"categories_sizes":[],"default_left":[0,0,0,0,0,0,0,0,0,0,0],"id":19,"left_children":[1,3,5,7,-1,9,-1,-1,-1,-1,-1],"loss_changes":[8.292996E0,3.1173084E0,3.31853E0,1.5148497E-1,0E0,6.272268E-2,0E0,0E0,0E0,0E0,0E0],"parents":[2147483647,0,0,1,1,2,2,3,3,5,5],"right_children":[2,4,6,8,-1,10,-1,-1,-1,-1,-1],"split_conditions":[9.4961804E-1,7.1856374E-1,3.1887214E0,1.1254609E-1,-4.2632774E-2,5.787052E-1,4.4362262E-2,2.1678029E-2,9.540772E-2,-1.006664E-1,-2.6759092E-2],"split_indices":[515,513,256,236,0,273,0,0,0,0,0],"split_type":[0,0,0,0,0,0,0,0,0,0,0],"sum_hessian":[1.7515083E1,8.881337E0,8.633746E0,7.227642E0,1.653695E0,7.0932198E0,1.5405266E0,1.0166175E0,6.2110243E0,6.0690002E0,1.0242195E0],"tree_param":{"num_deleted":"0","num_feature":"517","num_nodes":"11","size_leaf_vector":"1"}},{"base_weights":[3.450976E-2,6.180365E-1,-6.214776E-1,-3.0835712E-1,9.4954394E-2,5.5472698E-2,-8.7422335E-1,3.848332E-2,-9.551838E-2,-1.019122E-1,3.303754E-3],"categories":[],"categories_nodes":[],"categories_segments":[],"categories_sizes":[],"default_left":[0,0,0,0,0,0,0,0,0,0,0],"id":20,"left_children":[1,3,5,7,-1,-1,9,-1,-1,-1,-1],"loss_changes":[7.1816835E0,3.3330116E0,3.118459E0,1.8758228E0,0E0,0E0,1.0432854E0,0E0,0E0,0E0,0E0],"parents":[2147483647,0,0,1,1,2,2,3,3,6,6],"right_children":[2,4,6,8,-1,-1,10,-1,-1,-1,-1],"split_conditions":[1.0652448E0,2.4526441E-1,1.7504036E-2,6.860245E-1,9.4954394E-2,5.5472698E-2,3.2298734E0,3.848332E-2,-9.551838E-2,-1.019122E-1,3.303754E-3],"split_indices":[515,87,435,273,0,0,93,0,0,0,0],"split_type":[0,0,0,0,0,0,0,0,0,0,0],"sum_hessian":[1.6758184E1,8.899543E0,7.8586426E0,2.363791E0,6.5357513E0,1.1786675E0,6.679975E0,1.3365178E0,1.0272732E0,5.6537232E0,1.0262519E0],"tree_param":{"num_deleted":"0","num_feature":"517","num_nodes":"11","size_leaf_vector":"1"}},{"base_weights":[-2.6047053E-2,7.652295E-1,-4.51834E-1,8.551426E-2,1.567883E-2,-7.251927E-1,4.8065528E-1,2.829658E-2,-9.549254E-1,6.6963606E-2,4.371335E-3,-3.166814E-3,-1.0915295E-1],"categories":[],"categories_nodes":[],"categories_segments":[],"categories_sizes":[],"default_left":[0,0,0,0,0,0,0,0,0,0,0,0,0],"id":21,"left_children":[1,3,5,-1,-1,7,9,-1,11,-1,-1,-1,-1],"loss_changes":[5.8163724E0,1.9700146E-1,3.1997995E0,0E0,0E0,2.36589E0,2.297687E-1,0E0,9.2366886E-1,0E0,0E0,0E0,0E0],"parents":[2147483647,0,0,1,1,2,2,5,5,6,6,8,8],"right_children":[2,4,6,-1,-1,8,10,-1,12,-1,-1,-1,-1],"split_conditions":[2.9993796E-1,1.4179114E0,3.2781243E-1,8.551426E-2,1.567883E-2,-1.8621165E-1,1.6730407E0,2.829658E-2,2.6376091E-2,6.6963606E-2,4.371335E-3,-3.166814E-3,-1.0915295E-1],"split_indices":[498,332,375,0,0,515,508,0,494,0,0,0,0],"split_type":[0,0,0,0,0,0,0,0,0,0,0,0,0],"sum_hessian":[1.5237365E1,5.0518546E0,1.018551E1,4.0481677E0,1.0036871E0,8.048424E0,2.1370864E0,1.4506551E0,6.5977683E0,1.120088E0,1.0169983E0,1.0091451E0,5.588623E0],"tree_param":{"num_deleted":"0","num_feature":"517","num_nodes":"13","size_leaf_vector":"1"}},{"base_weights":[2.5850082E-2,7.7591294E-1,-4.4490016E-1,1.03575215E-2,8.79322E-2,4.4330302E-1,-7.10645E-1,6.815342E-2,-1.1862587E-3,2.524819E-2,-9.399327E-1,-2.7688479E-2,-1.0206425E-1],"categories":[],"categories_nodes":[],"categories_segments":[],"categories_sizes":[],"default_left":[0,0,0,0,0,0,0,0,0,0,0,0,0],"id":22,"left_children":[1,3,5,-1,-1,7,9,-1,-1,-1,11,-1,-1],"loss_changes":[6.011111E0,3.6445904E-1,2.7921045E0,0E0,0E0,3.369274E-1,2.1059766E0,0E0,0E0,0E0,9.4488144E-2,0E0,0E0],"parents":[2147483647,0,0,1,1,2,2,5,5,6,6,10,10],"right_children":[2,4,6,-1,-1,8,10,-1,-1,-1,12,-1,-1],"split_conditions":[9.185204E-2,7.00072E-2,1.9766536E-1,1.03575215E-2,8.79322E-2,1.2716071E-1,2.9720226E-1,6.815342E-2,-1.1862587E-3,2.524819E-2,2.1936474E0,-2.7688479E-2,-1.0206425E-1],"split_indices":[515,226,316,0,0,388,497,0,0,0,351,0,0],"split_type":[0,0,0,0,0,0,0,0,0,0,0,0,0],"sum_hessian":[1.5046534E1,5.5520344E0,9.494499E0,1.0069197E0,4.5451145E0,2.0326357E0,7.461863E0,1.0078175E0,1.0248183E0,1.4153795E0,6.0464835E0,1.1369363E0,4.9095473E0],"tree_param":{"num_deleted":"0","num_feature":"517","num_nodes":"13","size_leaf_vector":"1"}},{"base_weights":[-8.8548966E-2,7.509809E-1,-5.253682E-1,8.6561315E-2,9.926057E-3,4.623096E-1,-8.196072E-1,6.986313E-2,-2.4148386E-3,-9.281387E-1,-1.1607234E-3,-1.0340442E-1,-1.566389E-2],"categories":[],"categories_nodes":[],"categories_segments":[],"categories_sizes":[],"default_left":[0,0,0,0,0,0,0,0,0,0,0,0,0],"id":23,"left_children":[1,3,5,-1,-1,7,9,-1,-1,11,-1,-1,-1],"loss_changes":[6.2078257E0,3.50137E-1,3.580067E0,0E0,0E0,3.8102883E-1,7.650933E-1,0E0,0E0,4.7428513E-1,0E0,0E0,0E0],"parents":[2147483647,0,0,1,1,2,2,5,5,6,6,9,9],"right_children":[2,4,6,-1,-1,8,10,-1,-1,12,-1,-1,-1],"split_conditions":[-1.8191716E-1,1.7065159E0,1.9766536E-1,8.6561315E-2,9.926057E-3,1.3574424E-1,4.944124E-1,6.986313E-2,-2.4148386E-3,2.6034525E-1,-1.1607234E-3,-1.0340442E-1,-1.566389E-2],"split_indices":[515,389,316,0,0,388,362,0,0,37,0,0,0],"split_type":[0,0,0,0,0,0,0,0,0,0,0,0,0],"sum_hessian":[1.4851987E1,4.8368206E0,1.0015166E1,3.8342164E0,1.0026041E0,2.1676772E0,7.847489E0,1.1653767E0,1.0023005E0,6.787145E0,1.0603436E0,5.668688E0,1.1184574E0],"tree_param":{"num_deleted":"0","num_feature":"517","num_nodes":"13","size_leaf_vector":"1"}},{"base_weights":[-5.2795697E-2,7.148262E-1,-4.329564E-1,9.781383E-3,8.325183E-2,-6.959478E-1,5.1665574E-2,-8.3455473E-1,1.363277E-2,3.5632998E-3,-9.804146E-2],"categories":[],"categories_nodes":[],"categories_segments":[],"categories_sizes":[],"default_left":[0,0,0,0,0,0,0,0,0,0,0],"id":24,"left_children":[1,3,5,-1,-1,7,-1,9,-1,-1,-1],"loss_changes":[4.778046E0,3.1425953E-1,3.0726757E0,0E0,0E0,1.1443529E0,0E0,1.024786E0,0E0,0E0,0E0],"parents":[2147483647,0,0,1,1,2,2,5,5,7,7],"right_children":[2,4,6,-1,-1,8,-1,10,-1,-1,-1],"split_conditions":[-1.8191716E-1,8.6270976E-1,8.2593197E-1,9.781383E-3,8.325183E-2,1.0291709E-1,5.1665574E-2,3.02462E-3,1.363277E-2,3.5632998E-3,-9.804146E-2],"split_indices":[515,125,212,0,0,302,0,154,0,0,0],"split_type":[0,0,0,0,0,0,0,0,0,0,0],"sum_hessian":[1.4312736E1,4.4489903E0,9.863746E0,1.006005E0,3.4429855E0,7.93367E0,1.9300753E0,6.7986813E0,1.1349888E0,1.0844783E0,5.714203E0],"tree_param":{"num_deleted":"0","num_feature":"517","num_nodes":"11","size_leaf_vector":"1"}},{"base_weights":[4.1887194E-2,6.094343E-1,-5.247239E-1,-2.8284019E-2,8.9466095E-2,-7.6200336E-1,5.099995E-2,7.501931E-3,-9.2518225E-2],"categories":[],"categories_nodes":[],"categories_segments":[],"categories_sizes":[],"default_left":[0,0,0,0,0,0,0,0,0],"id":25,"left_children":[1,3,5,-1,-1,7,-1,-1,-1],"loss_changes":[4.9057035E0,2.1839654E0,2.2726219E0,0E0,0E0,9.7674704E-1,0E0,0E0,0E0],"parents":[2147483647,0,0,1,1,2,2,5,5],"right_children":[2,4,6,-1,-1,8,-1,-1,-1],"split_conditions":[8.2618576E-1,1.2621794E0,3.1847186E0,-2.8284019E-2,8.9466095E-2,2.0019442E-1,5.099995E-2,7.501931E-3,-9.2518225E-2],"split_indices":[515,88,256,0,0,391,0,0,0],"split_type":[0,0,0,0,0,0,0,0,0],"sum_hessian":[1.3260653E1,6.5870967E0,6.6735563E0,1.597622E0,4.9894743E0,5.643073E0,1.0304835E0,1.0087867E0,4.6342864E0],"tree_param":{"num_deleted":"0","num_feature":"517","num_nodes":"9","size_leaf_vector":"1"}},{"base_weights":[-4.649071E-2,6.759444E-1,-4.1896155E-1,9.625043E-3,7.98953E-2,2.7864784E-1,-7.8893477E-1,6.39185E-2,-2.7859882E-2,-1.5712416E-3,-9.450812E-2],"categories":[],"categories_nodes":[],"categories_segments":[],"categories_sizes":[],"default_left":[0,0,0,0,0,0,0,0,0,0,0],"id":26,"left_children":[1,3,5,-1,-1,7,9,-1,-1,-1,-1],"loss_changes":[3.883553E0,2.749529E-1,2.6577258E0,0E0,0E0,9.842002E-1,7.618737E-1,0E0,0E0,0E0,0E0],"parents":[2147483647,0,0,1,1,2,2,5,5,6,6],"right_children":[2,4,6,-1,-1,8,10,-1,-1,-1,-1],"split_conditions":[-1.8621165E-1,5.588513E-2,4.9556997E-2,9.625043E-3,7.98953E-2,2.1602164E-1,5.9280443E-1,6.39185E-2,-2.7859882E-2,-1.5712416E-3,-9.450812E-2],"split_indices":[515,438,213,0,0,282,499,0,0,0,0],"split_type":[0,0,0,0,0,0,0,0,0,0,0],"sum_hessian":[1.2379952E1,3.9343085E0,8.445643E0,1.0007261E0,2.9335823E0,3.0124013E0,5.4332423E0,1.7397478E0,1.2726537E0,1.0977775E0,4.335465E0],"tree_param":{"num_deleted":"0","num_feature":"517","num_nodes":"11","size_leaf_vector":"1"}},{"base_weights":[9.6535105E-3,5.521616E-1,-4.2829797E-1,7.313181E-1,-2.1520203E-2,-8.502373E-1,2.2241671E-1,8.6803205E-2,1.0364683E-2,-1.9053727E-2,-9.913516E-2,-3.2365978E-2,5.370481E-2],"categories":[],"categories_nodes":[],"categories_segments":[],"categories_sizes":[],"default_left":[0,0,0,0,0,0,0,0,0,0,0,0,0],"id":27,"left_children":[1,3,5,7,-1,9,11,-1,-1,-1,-1,-1,-1],"loss_changes":[3.524687E0,1.067313E0,2.4462643E0,3.9000082E-1,0E0,2.9468203E-1,8.656142E-1,0E0,0E0,0E0,0E0,0E0,0E0],"parents":[2147483647,0,0,1,1,2,2,3,3,5,5,6,6],"right_children":[2,4,6,8,-1,10,12,-1,-1,-1,-1,-1,-1],"split_conditions":[1.1945365E-1,2.0922322E0,1.0728256E0,6.936211E-1,-2.1520203E-2,1.0431909E-1,8.001993E-2,8.6803205E-2,1.0364683E-2,-1.9053727E-2,-9.913516E-2,-3.2365978E-2,5.370481E-2],"split_indices":[155,458,120,270,0,24,257,0,0,0,0,0,0],"split_type":[0,0,0,0,0,0,0,0,0,0,0,0,0],"sum_hessian":[1.2839669E1,5.618735E0,7.2209344E0,4.5933075E0,1.0254273E0,4.194498E0,3.026436E0,3.4573226E0,1.1359848E0,1.1532701E0,3.041228E0,1.0958228E0,1.9306133E0],"tree_param":{"num_deleted":"0","num_feature":"517","num_nodes":"13","size_leaf_vector":"1"}},{"base_weights":[-5.4564435E-2,5.2771103E-1,-4.3907076E-1,8.4621504E-2,-2.080791E-2,3.6462996E-2,-6.7903733E-1,9.303282E-3,-8.929314E-2],"categories":[],"categories_nodes":[],"categories_segments":[],"categories_sizes":[],"default_left":[0,0,0,0,0,0,0,0,0],"id":28,"left_children":[1,3,5,-1,-1,-1,7,-1,-1],"loss_changes":[3.2445693E0,1.5367844E0,1.9159917E0,0E0,0E0,0E0,1.2408917E0,0E0,0E0],"parents":[2147483647,0,0,1,1,2,2,6,6],"right_children":[2,4,6,-1,-1,-1,8,-1,-1],"split_conditions":[9.1682154E-1,4.3451902E-1,1.4737192E-1,8.4621504E-2,-2.080791E-2,3.6462996E-2,-1.4768325E-1,9.303282E-3,-8.929314E-2],"split_indices":[443,187,401,0,0,0,512,0,0],"split_type":[0,0,0,0,0,0,0,0,0],"sum_hessian":[1.245699E1,4.8062415E0,7.6507487E0,3.2495298E0,1.5567116E0,1.639661E0,6.011088E0,1.4266208E0,4.584467E0],"tree_param":{"num_deleted":"0","num_feature":"517","num_nodes":"9","size_leaf_vector":"1"}},{"base_weights":[-1.9742144E-2,5.737398E-1,-3.2856613E-1,-1.3441935E-2,7.942463E-2,-7.548919E-1,2.3386417E-1,-4.009021E-3,-9.092219E-2,5.365573E-1,-3.4120556E-2,7.282258E-2,5.3105406E-3],"categories":[],"categories_nodes":[],"categories_segments":[],"categories_sizes":[],"default_left":[0,0,0,0,0,0,0,0,0,0,0,0,0],"id":29,"left_children":[1,3,5,-1,-1,7,9,-1,-1,11,-1,-1,-1],"loss_changes":[2.5943155E0,8.651613E-1,2.3991756E0,0E0,0E0,5.713067E-1,1.0116923E0,0E0,0E0,2.863338E-1,0E0,0E0,0E0],"parents":[2147483647,0,0,1,1,2,2,5,5,6,6,9,9],"right_children":[2,4,6,-1,-1,8,10,-1,-1,12,-1,-1,-1],"split_conditions":[-1.0594373E-1,1.3662723E-2,5.2632725E-1,-1.3441935E-2,7.942463E-2,2.4493299E0,4.3451902E-1,-4.009021E-3,-9.092219E-2,2.3791943E-1,-3.4120556E-2,7.282258E-2,5.3105406E-3],"split_indices":[512,323,312,0,0,3,187,0,0,7,0,0,0],"split_type":[0,0,0,0,0,0,0,0,0,0,0,0,0],"sum_hessian":[1.212628E1,3.856752E0,8.269528E0,1.0084637E0,2.8482883E0,4.509274E0,3.7602544E0,1.0243977E0,3.4848762E0,2.5074208E0,1.2528337E0,1.4329941E0,1.0744267E0],"tree_param":{"num_deleted":"0","num_feature":"517","num_nodes":"13","size_leaf_vector":"1"}},{"base_weights":[4.4241346E-2,6.710032E-1,-5.31834E-1,8.569871E-2,-1.2971105E-2,3.7435185E-2,-7.9109436E-1,-1.8886698E-2,-8.8672616E-2],"categories":[],"categories_nodes":[],"categories_segments":[],"categories_sizes":[],"default_left":[0,0,0,0,0,0,0,0,0],"id":30,"left_children":[1,3,5,-1,-1,-1,7,-1,-1],"loss_changes":[4.627813E0,1.0206659E0,1.8752853E0,0E0,0E0,0E0,1.5201712E-1,0E0,0E0],"parents":[2147483647,0,0,1,1,2,2,6,6],"right_children":[2,4,6,-1,-1,-1,8,-1,-1],"split_conditions":[9.029611E-1,1.8153673E-1,1.7504036E-2,8.569871E-2,-1.2971105E-2,3.7435185E-2,7.76749E-2,-1.8886698E-2,-8.8672616E-2],"split_indices":[515,293,435,0,0,0,80,0,0],"split_type":[0,0,0,0,0,0,0,0,0],"sum_hessian":[1.0828853E1,5.1073465E0,5.7215056E0,4.087626E0,1.0197208E0,1.1740296E0,4.5474763E0,1.0308411E0,3.516635E0],"tree_param":{"num_deleted":"0","num_feature":"517","num_nodes":"9","size_leaf_vector":"1"}},{"base_weights":[2.6691448E-2,-6.2835425E-1,3.8938105E-1,-1.0694172E-2,-8.467556E-2,7.3123455E-1,-1.5985236E-1,8.125726E-2,1.9451972E-2,-5.6941282E-2,4.984964E-2],"categories":[],"categories_nodes":[],"categories_segments":[],"categories_sizes":[],"default_left":[0,0,0,0,0,0,0,0,0,0,0],"id":31,"left_children":[1,3,5,-1,-1,7,9,-1,-1,-1,-1],"loss_changes":[3.0465477E0,4.316231E-1,1.6580135E0,0E0,0E0,7.062888E-2,1.3541669E0,0E0,0E0,0E0,0E0],"parents":[2147483647,0,0,1,1,2,2,5,5,6,6],"right_children":[2,4,6,-1,-1,8,10,-1,-1,-1,-1],"split_conditions":[3.212051E-1,6.177312E-1,1.027651E0,-1.0694172E-2,-8.467556E-2,1.0893127E0,3.1485555E0,8.125726E-2,1.9451972E-2,-5.6941282E-2,4.984964E-2],"split_indices":[162,110,515,0,0,121,256,0,0,0,0],"split_type":[0,0,0,0,0,0,0,0,0,0,0],"sum_hessian":[1.0793496E1,3.5854354E0,7.208061E0,1.498224E0,2.0872114E0,4.238539E0,2.9695218E0,3.2343981E0,1.0041412E0,1.9139426E0,1.0555792E0],"tree_param":{"num_deleted":"0","num_feature":"517","num_nodes":"11","size_leaf_vector":"1"}},{"base_weights":[-6.7196645E-2,-4.935808E-1,3.783393E-1,1.6152505E-2,-8.139782E-1,7.621682E-2,-1.6106789E-1,-9.6680015E-2,-1.5963724E-2,4.9120575E-2,-6.653647E-2],"categories":[],"categories_nodes":[],"categories_segments":[],"categories_sizes":[],"default_left":[0,0,0,0,0,0,0,0,0,0,0],"id":32,"left_children":[1,3,5,-1,7,-1,9,-1,-1,-1,-1],"loss_changes":[2.3533952E0,1.4457963E0,1.3947041E0,0E0,2.8272676E-1,0E0,1.4385287E0,0E0,0E0,0E0,0E0],"parents":[2147483647,0,0,1,1,2,2,4,4,6,6],"right_children":[2,4,6,-1,8,-1,10,-1,-1,-1,-1],"split_conditions":[7.0462155E-1,1.3603641E-1,9.4961804E-1,1.6152505E-2,4.555949E-1,7.621682E-2,1.790419E-1,-9.6680015E-2,-1.5963724E-2,4.9120575E-2,-6.653647E-2],"split_indices":[54,145,515,0,166,0,282,0,0,0,0],"split_type":[0,0,0,0,0,0,0,0,0,0,0],"sum_hessian":[1.0405277E1,5.2618127E0,5.1434646E0,1.8910686E0,3.3707442E0,2.7638228E0,2.3796418E0,2.3454456E0,1.0252985E0,1.0489086E0,1.3307332E0],"tree_param":{"num_deleted":"0","num_feature":"517","num_nodes":"11","size_leaf_vector":"1"}},{"base_weights":[1.1079865E-1,5.9652317E-1,-4.2826286E-1,-2.6747236E-2,8.351686E-2,-7.129352E-2,3.66038E-2],"categories":[],"categories_nodes":[],"categories_segments":[],"categories_sizes":[],"default_left":[0,0,0,0,0,0,0],"id":33,"left_children":[1,3,5,-1,-1,-1,-1],"loss_changes":[2.9742453E0,1.4357502E0,1.5054204E0,0E0,0E0,0E0,0E0],"parents":[2147483647,0,0,1,1,2,2],"right_children":[2,4,6,-1,-1,-1,-1],"split_conditions":[1.027651E0,1.4211685E-2,1.4881146E0,-2.6747236E-2,8.351686E-2,-7.129352E-2,3.66038E-2],"split_indices":[515,241,423,0,0,0,0],"split_type":[0,0,0,0,0,0,0],"sum_hessian":[9.3835335E0,4.879887E0,4.5036464E0,1.0300143E0,3.8498728E0,3.3908312E0,1.1128151E0],"tree_param":{"num_deleted":"0","num_feature":"517","num_nodes":"7","size_leaf_vector":"1"}},{"base_weights":[-1.6389905E-2,3.7180966E-1,-5.608575E-1,5.8368254E-1,-2.5385378E-2,-8.298433E-2,2.2316879E-2,-8.67126E-3,7.608543E-2],"categories":[],"categories_nodes":[],"categories_segments":[],"categories_sizes":[],"default_left":[0,0,0,0,0,0,0,0,0],"id":34,"left_children":[1,3,5,7,-1,-1,-1,-1,-1],"loss_changes":[2.4304662E0,1.0414E0,1.1920353E0,6.998503E-1,0E0,0E0,0E0,0E0,0E0],"parents":[2147483647,0,0,1,1,2,2,3,3],"right_children":[2,4,6,8,-1,-1,-1,-1,-1],"split_conditions":[8.0793923E-1,3.962857E-1,1.295436E0,1.2237011E0,-2.5385378E-2,-8.298433E-2,2.2316879E-2,-8.67126E-3,7.608543E-2],"split_indices":[110,163,407,480,0,0,0,0,0],"split_type":[0,0,0,0,0,0,0,0,0],"sum_hessian":[9.512452E0,5.7382526E0,3.7741992E0,4.3367624E0,1.4014902E0,2.7665918E0,1.0076077E0,1.0132664E0,3.3234959E0],"tree_param":{"num_deleted":"0","num_feature":"517","num_nodes":"9","size_leaf_vector":"1"}},{"base_weights":[8.631138E-2,7.572426E-2,-2.6381153E-1,2.3725751E-1,-7.2731294E-2,6.290834E-2,-2.9711515E-2],"categories":[],"categories_nodes":[],"categories_segments":[],"categories_sizes":[],"default_left":[0,0,0,0,0,0,0],"id":35,"left_children":[1,-1,3,5,-1,-1,-1],"loss_changes":[2.4997318E0,0E0,1.8389708E0,1.0667073E0,0E0,0E0,0E0],"parents":[2147483647,0,0,2,2,3,3],"right_children":[2,-1,4,6,-1,-1,-1],"split_conditions":[9.185204E-2,7.572426E-2,2.5599274E-1,7.950592E-1,-7.2731294E-2,6.290834E-2,-2.9711515E-2],"split_indices":[515,0,282,472,0,0,0],"split_type":[0,0,0,0,0,0,0],"sum_hessian":[8.790893E0,2.615702E0,6.1751904E0,3.2018948E0,2.9732955E0,1.7450842E0,1.4568106E0],"tree_param":{"num_deleted":"0","num_feature":"517","num_nodes":"7","size_leaf_vector":"1"}},{"base_weights":[-3.0189984E-2,3.8951316E-1,-4.5713794E-1,6.078608E-1,-1.839279E-2,1.3339597E-2,-8.181622E-2,1.1720367E-2,7.279244E-2],"categories":[],"categories_nodes":[],"categories_segments":[],"categories_sizes":[],"default_left":[0,0,0,0,0,0,0,0,0],"id":36,"left_children":[1,3,5,7,-1,-1,-1,-1,-1],"loss_changes":[1.9984627E0,8.208502E-1,1.2808893E0,1.6997468E-1,0E0,0E0,0E0,0E0,0E0],"parents":[2147483647,0,0,1,1,2,2,3,3],"right_children":[2,4,6,8,-1,-1,-1,-1,-1],"split_conditions":[6.205898E-1,3.115492E0,8.056831E-2,1.11438125E-1,-1.839279E-2,1.3339597E-2,-8.181622E-2,1.1720367E-2,7.279244E-2],"split_indices":[110,185,213,126,0,0,0,0,0],"split_type":[0,0,0,0,0,0,0,0,0],"sum_hessian":[9.1589775E0,4.662891E0,4.4960866E0,3.3335576E0,1.3293332E0,1.9450464E0,2.5510404E0,1.0438588E0,2.2896988E0],"tree_param":{"num_deleted":"0","num_feature":"517","num_nodes":"9","size_leaf_vector":"1"}},{"base_weights":[-8.746707E-2,-5.053064E-1,3.640584E-1,7.957902E-3,-7.5189763E-1,6.4223766E-1,-2.2312662E-2,-1.268356E-2,-9.146112E-2,7.56985E-2,1.5184293E-2],"categories":[],"categories_nodes":[],"categories_segments":[],"categories_sizes":[],"default_left":[0,0,0,0,0,0,0,0,0,0,0],"id":37,"left_children":[1,3,5,-1,7,9,-1,-1,-1,-1,-1],"loss_changes":[2.0944493E0,8.787776E-1,1.0332274E0,0E0,2.9995942E-1,1.0759318E-1,0E0,0E0,0E0,0E0,0E0],"parents":[2147483647,0,0,1,1,2,2,4,4,5,5],"right_children":[2,4,6,-1,8,10,-1,-1,-1,-1,-1],"split_conditions":[7.314837E-2,1.6253356E0,9.77335E-2,7.957902E-3,4.6010235E-1,2.5599274E-1,-2.2312662E-2,-1.268356E-2,-9.146112E-2,7.56985E-2,1.5184293E-2],"split_indices":[68,331,201,0,402,282,0,0,0,0,0],"split_type":[0,0,0,0,0,0,0,0,0,0,0],"sum_hessian":[9.126347E0,4.6781244E0,4.448222E0,1.5882547E0,3.08987E0,2.9546826E0,1.4935395E0,1.0057597E0,2.0841103E0,1.9538724E0,1.00081E0],"tree_param":{"num_deleted":"0","num_feature":"517","num_nodes":"11","size_leaf_vector":"1"}},{"base_weights":[-3.042843E-2,4.6997654E-1,-3.4719712E-1,7.013123E-2,-9.953821E-3,1.771369E-1,-6.306402E-1,-1.8633636E-2,4.5591787E-2,-7.1818526E-3,-7.7496246E-2],"categories":[],"categories_nodes":[],"categories_segments":[],"categories_sizes":[],"default_left":[0,0,0,0,0,0,0,0,0,0,0],"id":38,"left_children":[1,3,5,-1,-1,7,9,-1,-1,-1,-1],"loss_changes":[1.6786335E0,6.140497E-1,1.0672686E0,0E0,0E0,3.9267212E-1,2.9862332E-1,0E0,0E0,0E0,0E0],"parents":[2147483647,0,0,1,1,2,2,5,5,6,6],"right_children":[2,4,6,-1,-1,8,10,-1,-1,-1,-1],"split_conditions":[8.302394E-1,4.3451902E-1,1.0439363E0,7.013123E-2,-9.953821E-3,8.610988E-1,7.272742E-2,-1.8633636E-2,4.5591787E-2,-7.1818526E-3,-7.7496246E-2],"split_indices":[443,187,449,0,0,386,427,0,0,0,0],"split_type":[0,0,0,0,0,0,0,0,0,0,0],"sum_hessian":[8.560493E0,3.1308994E0,5.429594E0,2.0619278E0,1.0689715E0,2.0368083E0,3.3927858E0,1.0280477E0,1.0087606E0,1.0037706E0,2.3890152E0],"tree_param":{"num_deleted":"0","num_feature":"517","num_nodes":"11","size_leaf_vector":"1"}},{"base_weights":[-5.04424E-2,-6.473535E-2,2.480691E-1,5.8642864E-1,-4.0832683E-2,7.637342E-2,-1.103939E-3],"categories":[],"categories_nodes":[],"categories_segments":[],"categories_sizes":[],"default_left":[0,0,0,0,0,0,0],"id":39,"left_children":[1,-1,3,5,-1,-1,-1],"loss_changes":[1.6954571E0,0E0,1.6753634E0,5.0384307E-1,0E0,0E0,0E0],"parents":[2147483647,0,0,2,2,3,3],"right_children":[2,-1,4,6,-1,-1,-1],"split_conditions":[2.4436393E-1,-6.473535E-2,7.129746E-1,2.9628152E-1,-4.0832683E-2,7.637342E-2,-1.103939E-3],"split_indices":[162,0,301,231,0,0,0],"split_type":[0,0,0,0,0,0,0],"sum_hessian":[7.613913E0,2.1487043E0,5.465209E0,3.6765902E0,1.7886188E0,2.6206093E0,1.0559808E0],"tree_param":{"num_deleted":"0","num_feature":"517","num_nodes":"7","size_leaf_vector":"1"}},{"base_weights":[-1.2459992E-2,5.042914E-1,-3.9666355E-1,6.59998E-2,4.555128E-3,2.2981508E-2,-6.264904E-1,-5.703245E-3,-7.8281164E-2],"categories":[],"categories_nodes":[],"categories_segments":[],"categories_sizes":[],"default_left":[0,0,0,0,0,0,0,0,0],"id":40,"left_children":[1,3,5,-1,-1,-1,7,-1,-1],"loss_changes":[1.965236E0,2.7220583E-1,9.5880616E-1,0E0,0E0,0E0,3.4781206E-1,0E0,0E0],"parents":[2147483647,0,0,1,1,2,2,6,6],"right_children":[2,4,6,-1,-1,-1,8,-1,-1],"split_conditions":[1.170773E-1,1.555221E0,9.080149E-1,6.59998E-2,4.555128E-3,2.2981508E-2,5.8779498E-3,-5.703245E-3,-7.8281164E-2],"split_indices":[155,128,443,0,0,0,434,0,0],"split_type":[0,0,0,0,0,0,0,0,0],"sum_hessian":[7.891016E0,3.231758E0,4.659258E0,2.085257E0,1.146501E0,1.2505286E0,3.4087293E0,1.0281509E0,2.3805785E0],"tree_param":{"num_deleted":"0","num_feature":"517","num_nodes":"9","size_leaf_vector":"1"}},{"base_weights":[-1.217934E-2,-4.2659867E-1,3.6214295E-1,6.469415E-3,-7.704563E-2,5.952088E-1,-2.4539374E-2,7.108069E-2,1.8474465E-2],"categories":[],"categories_nodes":[],"categories_segments":[],"categories_sizes":[],"default_left":[0,0,0,0,0,0,0,0,0],"id":41,"left_children":[1,3,5,-1,-1,7,-1,-1,-1],"loss_changes":[1.5493668E0,8.4831744E-1,8.916143E-1,0E0,0E0,6.30995E-2,0E0,0E0,0E0],"parents":[2147483647,0,0,1,1,2,2,5,5],"right_children":[2,4,6,-1,-1,8,-1,-1,-1],"split_conditions":[6.180693E-2,3.8870972E-1,1.0471816E0,6.469415E-3,-7.704563E-2,1.9171077E0,-2.4539374E-2,7.108069E-2,1.8474465E-2],"split_indices":[68,84,49,0,0,206,0,0,0],"split_type":[0,0,0,0,0,0,0,0,0],"sum_hessian":[7.9918756E0,3.726519E0,4.265356E0,1.8685921E0,1.8579271E0,3.0974069E0,1.1679493E0,1.8458496E0,1.2515574E0],"tree_param":{"num_deleted":"0","num_feature":"517","num_nodes":"9","size_leaf_vector":"1"}},{"base_weights":[7.617574E-2,4.6502778E-1,-4.0150106E-1,-6.8158726E-3,6.359528E-2,1.1156347E-3,-6.600136E-2],"categories":[],"categories_nodes":[],"categories_segments":[],"categories_sizes":[],"default_left":[0,0,0,0,0,0,0],"id":42,"left_children":[1,3,5,-1,-1,-1,-1],"loss_changes":[1.7602466E0,5.111655E-1,4.7014982E-1,0E0,0E0,0E0,0E0],"parents":[2147483647,0,0,1,1,2,2],"right_children":[2,4,6,-1,-1,-1,-1],"split_conditions":[2.6275012E-1,2.6443834E0,6.132227E-1,-6.8158726E-3,6.359528E-2,1.1156347E-3,-6.600136E-2],"split_indices":[16,445,110,0,0,0,0],"split_type":[0,0,0,0,0,0,0],"sum_hessian":[7.471466E0,4.133267E0,3.3381991E0,1.1493136E0,2.9839532E0,1.6543092E0,1.6838899E0],"tree_param":{"num_deleted":"0","num_feature":"517","num_nodes":"7","size_leaf_vector":"1"}},{"base_weights":[-1.07251145E-1,3.4732735E-1,-6.256025E-1,-3.3260267E-2,7.2999805E-2,-7.1732275E-2,-1.7872833E-2],"categories":[],"categories_nodes":[],"categories_segments":[],"categories_sizes":[],"default_left":[0,0,0,0,0,0,0],"id":43,"left_children":[1,3,5,-1,-1,-1,-1],"loss_changes":[2.019269E0,1.4702086E0,3.287804E-2,0E0,0E0,0E0,0E0],"parents":[2147483647,0,0,1,1,2,2],"right_children":[2,4,6,-1,-1,-1,-1],"split_conditions":[1.1070809E0,4.4902575E-1,5.2588814E-1,-3.3260267E-2,7.2999805E-2,-7.1732275E-2,-1.7872833E-2],"split_indices":[515,17,370,0,0,0,0],"split_type":[0,0,0,0,0,0,0],"sum_hessian":[6.647454E0,3.7173703E0,2.9300835E0,1.3858421E0,2.3315282E0,1.9289653E0,1.0011181E0],"tree_param":{"num_deleted":"0","num_feature":"517","num_nodes":"7","size_leaf_vector":"1"}},{"base_weights":[-7.3959835E-2,3.1258896E-1,-5.095676E-1,-2.9521734E-2,5.8062773E-2,-6.905636E-2,4.4478074E-5],"categories":[],"categories_nodes":[],"categories_segments":[],"categories_sizes":[],"default_left":[0,0,0,0,0,0,0],"id":44,"left_children":[1,3,5,-1,-1,-1,-1],"loss_changes":[1.4776794E0,9.4823396E-1,3.7522078E-1,0E0,0E0,0E0,0E0],"parents":[2147483647,0,0,1,1,2,2],"right_children":[2,4,6,-1,-1,-1,-1],"split_conditions":[2.6275012E-1,2.6443834E0,2.4395642E-1,-2.9521734E-2,5.8062773E-2,-6.905636E-2,4.4478074E-5],"split_indices":[16,445,25,0,0,0,0],"split_type":[0,0,0,0,0,0,0],"sum_hessian":[6.829704E0,3.7682493E0,3.0614543E0,1.1221831E0,2.6460662E0,1.9982804E0,1.063174E0],"tree_param":{"num_deleted":"0","num_feature":"517","num_nodes":"7","size_leaf_vector":"1"}},{"base_weights":[4.153018E-2,6.596949E-2,-2.6647E-1,2.2983426E-2,-5.7392406E-1,-6.584262E-2,-1.7691588E-2],"categories":[],"categories_nodes":[],"categories_segments":[],"categories_sizes":[],"default_left":[0,0,0,0,0,0,0],"id":45,"left_children":[1,-1,3,-1,5,-1,-1],"loss_changes":[1.5887564E0,0E0,9.964206E-1,0E0,1.0470629E-2,0E0,0E0],"parents":[2147483647,0,0,2,2,4,4],"right_children":[2,-1,4,-1,6,-1,-1],"split_conditions":[-1.8191716E-1,6.596949E-2,2.0216358E-1,2.2983426E-2,1.2245903E0,-6.584262E-2,-1.7691588E-2],"split_indices":[515,0,282,0,66,0,0],"split_type":[0,0,0,0,0,0,0],"sum_hessian":[6.42125E0,1.7556825E0,4.6655674E0,1.8812464E0,2.784321E0,1.7527769E0,1.0315441E0],"tree_param":{"num_deleted":"0","num_feature":"517","num_nodes":"7","size_leaf_vector":"1"}},{"base_weights":[-8.624712E-3,-5.286634E-2,2.5910264E-1,-1.3653843E-1,6.1076235E-2,2.2614866E-2,-4.0864285E-2],"categories":[],"categories_nodes":[],"categories_segments":[],"categories_sizes":[],"default_left":[0,0,0,0,0,0,0],"id":46,"left_children":[1,-1,3,5,-1,-1,-1],"loss_changes":[1.2170485E0,0E0,8.892643E-1,4.4206193E-1,0E0,0E0,0E0],"parents":[2147483647,0,0,2,2,3,3],"right_children":[2,-1,4,6,-1,-1,-1],"split_conditions":[2.4005526E-1,-5.286634E-2,7.117223E-2,5.867175E-1,6.1076235E-2,2.2614866E-2,-4.0864285E-2],"split_indices":[162,0,204,380,0,0,0],"split_type":[0,0,0,0,0,0,0],"sum_hessian":[6.7575336E0,1.9653556E0,4.7921777E0,2.542935E0,2.249243E0,1.1624283E0,1.3805068E0],"tree_param":{"num_deleted":"0","num_feature":"517","num_nodes":"7","size_leaf_vector":"1"}},{"base_weights":[-5.169218E-3,-3.383638E-1,3.6075556E-1,1.810475E-2,-5.7093674E-1,5.585403E-2,-1.1702774E-2,-7.0225164E-2,-1.2859208E-2],"categories":[],"categories_nodes":[],"categories_segments":[],"categories_sizes":[],"default_left":[0,0,0,0,0,0,0,0,0],"id":47,"left_children":[1,3,5,-1,7,-1,-1,-1,-1],"loss_changes":[1.0908422E0,6.680957E-1,4.6895278E-1,0E0,1.11243844E-1,0E0,0E0,0E0,0E0],"parents":[2147483647,0,0,1,1,2,2,4,4],"right_children":[2,4,6,-1,8,-1,-1,-1,-1],"split_conditions":[7.314837E-2,5.61406E-2,7.5322145E-1,1.810475E-2,1.4495127E0,5.585403E-2,-1.1702774E-2,-7.0225164E-2,-1.2859208E-2],"split_indices":[68,31,334,0,12,0,0,0,0],"split_type":[0,0,0,0,0,0,0,0,0],"sum_hessian":[6.945724E0,3.6748707E0,3.270853E0,1.2050796E0,2.4697912E0,2.1937122E0,1.0771406E0,1.4513695E0,1.0184218E0],"tree_param":{"num_deleted":"0","num_feature":"517","num_nodes":"9","size_leaf_vector":"1"}},{"base_weights":[-6.4999074E-2,2.8757724E-1,-4.494431E-1,-3.957814E-2,6.008465E-2,1.4556468E-3,-6.406236E-2],"categories":[],"categories_nodes":[],"categories_segments":[],"categories_sizes":[],"default_left":[0,0,0,0,0,0,0],"id":48,"left_children":[1,3,5,-1,-1,-1,-1],"loss_changes":[1.1711521E0,1.2266923E0,3.701316E-1,0E0,0E0,0E0,0E0],"parents":[2147483647,0,0,1,1,2,2],"right_children":[2,4,6,-1,-1,-1,-1],"split_conditions":[2.6734444E-1,1.3252047E-1,3.983859E-1,-3.957814E-2,6.008465E-2,1.4556468E-3,-6.406236E-2],"split_indices":[16,506,512,0,0,0,0],"split_type":[0,0,0,0,0,0,0],"sum_hessian":[6.686716E0,3.6193504E0,3.0673656E0,1.0548761E0,2.5644743E0,1.164633E0,1.9027326E0],"tree_param":{"num_deleted":"0","num_feature":"517","num_nodes":"7","size_leaf_vector":"1"}},{"base_weights":[-1.40134E-2,5.47882E-2,-2.9422745E-1,-4.9894375E-1,2.9801503E-2,-1.4414805E-3,-7.1335286E-2],"categories":[],"categories_nodes":[],"categories_segments":[],"categories_sizes":[],"default_left":[0,0,0,0,0,0,0],"id":49,"left_children":[1,-1,3,5,-1,-1,-1],"loss_changes":[1.3321592E0,0E0,8.292104E-1,4.6189022E-1,0E0,0E0,0E0],"parents":[2147483647,0,0,2,2,3,3],"right_children":[2,-1,4,6,-1,-1,-1],"split_conditions":[2.851832E-1,5.47882E-2,2.7519968E-1,1.5516812E-1,2.9801503E-2,-1.4414805E-3,-7.1335286E-2],"split_indices":[498,0,375,515,0,0,0],"split_type":[0,0,0,0,0,0,0],"sum_hessian":[6.436964E0,1.8240621E0,4.6129017E0,3.5450456E0,1.0678562E0,1.4148809E0,2.1301646E0],"tree_param":{"num_deleted":"0","num_feature":"517","num_nodes":"7","size_leaf_vector":"1"}},{"base_weights":[-3.7691616E-3,-5.306943E-2,2.40766E-1,4.6381655E-1,-2.6225952E-2,-5.240631E-3,6.7675106E-2],"categories":[],"categories_nodes":[],"categories_segments":[],"categories_sizes":[],"default_left":[0,0,0,0,0,0,0],"id":50,"left_children":[1,-1,3,5,-1,-1,-1],"loss_changes":[1.0815198E0,0E0,7.660698E-1,5.125641E-1,0E0,0E0,0E0],"parents":[2147483647,0,0,2,2,3,3],"right_children":[2,-1,4,6,-1,-1,-1],"split_conditions":[2.4436393E-1,-5.306943E-2,1.4698322E-1,8.656224E-1,-2.6225952E-2,-5.240631E-3,6.7675106E-2],"split_indices":[162,0,396,229,0,0,0],"split_type":[0,0,0,0,0,0,0],"sum_hessian":[6.401893E0,1.6583211E0,4.743572E0,3.340348E0,1.4032241E0,1.1956315E0,2.1447165E0],"tree_param":{"num_deleted":"0","num_feature":"517","num_nodes":"7","size_leaf_vector":"1"}},{"base_weights":[4.916416E-2,3.9865774E-1,-3.3208388E-1,-2.5441343E-2,6.9901414E-2,1.9830933E-2,-6.418518E-2],"categories":[],"categories_nodes":[],"categories_segments":[],"categories_sizes":[],"default_left":[0,0,0,0,0,0,0],"id":51,"left_children":[1,3,5,-1,-1,-1,-1],"loss_changes":[1.0778348E0,9.9313915E-1,7.7448964E-1,0E0,0E0,0E0,0E0],"parents":[2147483647,0,0,1,1,2,2],"right_children":[2,4,6,-1,-1,-1,-1],"split_conditions":[1.027651E0,1.1393831E-1,1.0324527E0,-2.5441343E-2,6.9901414E-2,1.9830933E-2,-6.418518E-2],"split_indices":[515,208,448,0,0,0,0],"split_type":[0,0,0,0,0,0,0],"sum_hessian":[6.0956197E0,3.156428E0,2.9391916E0,1.0425504E0,2.1138778E0,1.2163451E0,1.7228466E0],"tree_param":{"num_deleted":"0","num_feature":"517","num_nodes":"7","size_leaf_vector":"1"}},{"base_weights":[-7.7092454E-2,4.441475E-2,-3.3283395E-1,-5.7928616E-1,2.331127E-2,-6.8524815E-2,-1.4415309E-2],"categories":[],"categories_nodes":[],"categories_segments":[],"categories_sizes":[],"default_left":[0,0,0,0,0,0,0],"id":52,"left_children":[1,-1,3,5,-1,-1,-1],"loss_changes":[1.0585632E0,0E0,8.5404605E-1,8.002782E-2,0E0,0E0,0E0],"parents":[2147483647,0,0,2,2,3,3],"right_children":[2,-1,4,6,-1,-1,-1],"split_conditions":[2.7243385E-1,4.441475E-2,6.9370937E0,1.5072393E0,2.331127E-2,-6.8524815E-2,-1.4415309E-2],"split_indices":[498,0,420,88,0,0,0],"split_type":[0,0,0,0,0,0,0],"sum_hessian":[5.8320894E0,1.677133E0,4.1549563E0,2.8780742E0,1.2768823E0,1.8522258E0,1.0258485E0],"tree_param":{"num_deleted":"0","num_feature":"517","num_nodes":"7","size_leaf_vector":"1"}},{"base_weights":[-2.5539871E-2,3.5796905E-1,-3.7880367E-1,-1.0536673E-2,5.5642236E-2,1.5513182E-2,-6.03861E-2],"categories":[],"categories_nodes":[],"categories_segments":[],"categories_sizes":[],"default_left":[0,0,0,0,0,0,0],"id":53,"left_children":[1,3,5,-1,-1,-1,-1],"loss_changes":[1.0916239E0,4.170138E-1,5.934474E-1,0E0,0E0,0E0,0E0],"parents":[2147483647,0,0,1,1,2,2],"right_children":[2,4,6,-1,-1,-1,-1],"split_conditions":[1.360909E0,2.051491E-1,1.1945365E-1,-1.0536673E-2,5.5642236E-2,1.5513182E-2,-6.03861E-2],"split_indices":[332,382,155,0,0,0,0],"split_type":[0,0,0,0,0,0,0],"sum_hessian":[6.056578E0,2.8975892E0,3.158989E0,1.0095707E0,1.8880185E0,1.0288358E0,2.1301532E0],"tree_param":{"num_deleted":"0","num_feature":"517","num_nodes":"7","size_leaf_vector":"1"}},{"base_weights":[-2.1413043E-2,2.8973994E-1,-3.846302E-1,-1.9770378E-2,5.0620355E-2,-6.279485E-2,8.792915E-3],"categories":[],"categories_nodes":[],"categories_segments":[],"categories_sizes":[],"default_left":[0,0,0,0,0,0,0],"id":54,"left_children":[1,3,5,-1,-1,-1,-1],"loss_changes":[8.8303745E-1,5.4825383E-1,4.6682268E-1,0E0,0E0,0E0,0E0],"parents":[2147483647,0,0,1,1,2,2],"right_children":[2,4,6,-1,-1,-1,-1],"split_conditions":[1.1935622E0,7.351422E-1,1.5692684E-1,-1.9770378E-2,5.0620355E-2,-6.279485E-2,8.792915E-3],"split_indices":[48,167,246,0,0,0,0],"split_type":[0,0,0,0,0,0,0],"sum_hessian":[5.827299E0,3.2475522E0,2.579747E0,1.025329E0,2.222223E0,1.4858606E0,1.0938863E0],"tree_param":{"num_deleted":"0","num_feature":"517","num_nodes":"7","size_leaf_vector":"1"}},{"base_weights":[-7.2050884E-2,4.293657E-2,-3.4062245E-1,-5.4440403E-1,2.0490644E-2,-6.572312E-2,-1.6266182E-2],"categories":[],"categories_nodes":[],"categories_segments":[],"categories_sizes":[],"default_left":[0,0,0,0,0,0,0],"id":55,"left_children":[1,-1,3,5,-1,-1,-1],"loss_changes":[1.0050607E0,0E0,6.352163E-1,5.2581787E-2,0E0,0E0,0E0],"parents":[2147483647,0,0,2,2,3,3],"right_children":[2,-1,4,6,-1,-1,-1],"split_conditions":[-5.396746E-2,4.293657E-2,1.8495041E0,1.2241073E0,2.0490644E-2,-6.572312E-2,-1.6266182E-2],"split_indices":[512,0,473,82,0,0,0],"split_type":[0,0,0,0,0,0,0],"sum_hessian":[5.3773155E0,1.6667789E0,3.7105367E0,2.7029247E0,1.007612E0,1.5292727E0,1.1736519E0],"tree_param":{"num_deleted":"0","num_feature":"517","num_nodes":"7","size_leaf_vector":"1"}},{"base_weights":[-2.5380043E-2,3.8945302E-1,-3.6960432E-1,5.668306E-2,2.2250349E-3,5.6578494E-3,-5.453548E-2],"categories":[],"categories_nodes":[],"categories_segments":[],"categories_sizes":[],"default_left":[0,0,0,0,0,0,0],"id":56,"left_children":[1,3,5,-1,-1,-1,-1],"loss_changes":[1.0327829E0,2.0295978E-1,3.240856E-1,0E0,0E0,0E0,0E0],"parents":[2147483647,0,0,1,1,2,2],"right_children":[2,4,6,-1,-1,-1,-1],"split_conditions":[2.6046914E-1,1.1070809E0,5.047367E-2,5.668306E-2,2.2250349E-3,5.6578494E-3,-5.453548E-2],"split_indices":[16,515,210,0,0,0,0],"split_type":[0,0,0,0,0,0,0],"sum_hessian":[5.224556E0,2.3096943E0,2.914862E0,1.1908218E0,1.1188724E0,1.0490535E0,1.8658085E0],"tree_param":{"num_deleted":"0","num_feature":"517","num_nodes":"7","size_leaf_vector":"1"}},{"base_weights":[7.7710524E-2,5.849507E-2,-1.6840251E-1,3.1181345E-2,-3.938344E-1,-6.763869E-2,2.0909594E-2],"categories":[],"categories_nodes":[],"categories_segments":[],"categories_sizes":[],"default_left":[0,0,0,0,0,0,0],"id":57,"left_children":[1,-1,3,-1,5,-1,-1],"loss_changes":[8.90548E-1,0E0,6.693112E-1,0E0,8.019832E-1,0E0,0E0],"parents":[2147483647,0,0,2,2,4,4],"right_children":[2,-1,4,-1,6,-1,-1],"split_conditions":[-1.8191716E-1,5.849507E-2,2.243648E0,3.1181345E-2,1.2903163E0,-6.763869E-2,2.0909594E-2],"split_indices":[515,0,261,0,407,0,0],"split_type":[0,0,0,0,0,0,0],"sum_hessian":[5.344528E0,1.2962319E0,4.0482965E0,1.1708866E0,2.8774097E0,1.8762883E0,1.0011213E0],"tree_param":{"num_deleted":"0","num_feature":"517","num_nodes":"7","size_leaf_vector":"1"}},{"base_weights":[1.6543526E-2,-3.7661913E-1,3.7816852E-1,-1.1810533E-3,-5.458152E-2,5.565483E-2,2.6006622E-3],"categories":[],"categories_nodes":[],"categories_segments":[],"categories_sizes":[],"default_left":[0,0,0,0,0,0,0],"id":58,"left_children":[1,3,5,-1,-1,-1,-1],"loss_changes":[9.170071E-1,1.8559012E-1,1.9513828E-1,0E0,0E0,0E0,0E0],"parents":[2147483647,0,0,1,1,2,2],"right_children":[2,4,6,-1,-1,-1,-1],"split_conditions":[3.4036747E-1,1.4038504E0,8.2618576E-1,-1.1810533E-3,-5.458152E-2,5.565483E-2,2.6006622E-3],"split_indices":[348,271,515,0,0,0,0],"split_type":[0,0,0,0,0,0,0],"sum_hessian":[4.4479923E0,2.1112044E0,2.3367877E0,1.0078826E0,1.1033218E0,1.1658672E0,1.1709205E0],"tree_param":{"num_deleted":"0","num_feature":"517","num_nodes":"7","size_leaf_vector":"1"}},{"base_weights":[1.11642005E-2,4.274728E-1,-3.0427405E-1,5.5158943E-2,8.360467E-3,1.7043157E-2,-5.4659873E-2],"categories":[],"categories_nodes":[],"categories_segments":[],"categories_sizes":[],"default_left":[0,0,0,0,0,0,0],"id":59,"left_children":[1,3,5,-1,-1,-1,-1],"loss_changes":[9.5433116E-1,8.7112725E-2,5.711405E-1,0E0,0E0,0E0,0E0],"parents":[2147483647,0,0,1,1,2,2],"right_children":[2,4,6,-1,-1,-1,-1],"split_conditions":[4.611315E-1,1.1903428E0,7.523445E-2,5.5158943E-2,8.360467E-3,1.7043157E-2,-5.4659873E-2],"split_indices":[515,429,427,0,0,0,0],"split_type":[0,0,0,0,0,0,0],"sum_hessian":[5.2767625E0,2.1215782E0,3.1551843E0,1.1150403E0,1.0065378E0,1.1665788E0,1.9886056E0],"tree_param":{"num_deleted":"0","num_feature":"517","num_nodes":"7","size_leaf_vector":"1"}},{"base_weights":[-5.2736312E-2,3.2969618E-1,-3.7903515E-1,5.1585384E-2,-3.1638443E-3,1.2564326E-2,-6.2426426E-2],"categories":[],"categories_nodes":[],"categories_segments":[],"categories_sizes":[],"default_left":[0,0,0,0,0,0,0],"id":60,"left_children":[1,3,5,-1,-1,-1,-1],"loss_changes":[9.122092E-1,2.4766704E-1,5.5731416E-1,0E0,0E0,0E0,0E0],"parents":[2147483647,0,0,1,1,2,2],"right_children":[2,4,6,-1,-1,-1,-1],"split_conditions":[1.5254213E-1,3.1883433E-1,5.9437984E-1,5.1585384E-2,-3.1638443E-3,1.2564326E-2,-6.2426426E-2],"split_indices":[213,187,110,0,0,0,0],"split_type":[0,0,0,0,0,0,0],"sum_hessian":[5.3086777E0,2.439314E0,2.869364E0,1.3276705E0,1.1116434E0,1.0977852E0,1.7715789E0],"tree_param":{"num_deleted":"0","num_feature":"517","num_nodes":"7","size_leaf_vector":"1"}},{"base_weights":[3.3851666E-3,-3.2999077E-1,2.8820816E-1,-5.6178015E-2,9.376991E-3,5.0569832E-2,-1.6833056E-2],"categories":[],"categories_nodes":[],"categories_segments":[],"categories_sizes":[],"default_left":[0,0,0,0,0,0,0],"id":61,"left_children":[1,3,5,-1,-1,-1,-1],"loss_changes":[6.834239E-1,3.7886116E-1,4.6988782E-1,0E0,0E0,0E0,0E0],"parents":[2147483647,0,0,1,1,2,2],"right_children":[2,4,6,-1,-1,-1,-1],"split_conditions":[5.9837375E-2,3.4425724E-1,6.8665004E-1,-5.6178015E-2,9.376991E-3,5.0569832E-2,-1.6833056E-2],"split_indices":[385,87,334,0,0,0,0],"split_type":[0,0,0,0,0,0,0],"sum_hessian":[5.195876E0,2.3208342E0,2.875042E0,1.2896936E0,1.0311406E0,1.8744127E0,1.0006292E0],"tree_param":{"num_deleted":"0","num_feature":"517","num_nodes":"7","size_leaf_vector":"1"}},{"base_weights":[-3.1923007E-2,2.7486625E-1,-3.8597524E-2,5.0682902E-2,-1.0934878E-2],"categories":[],"categories_nodes":[],"categories_segments":[],"categories_sizes":[],"default_left":[0,0,0,0,0],"id":62,"left_children":[1,3,-1,-1,-1],"loss_changes":[7.054E-1,3.709297E-1,0E0,0E0,0E0],"parents":[2147483647,0,0,1,1],"right_children":[2,4,-1,-1,-1],"split_conditions":[1.931867E0,1.6410681E0,-3.8597524E-2,5.0682902E-2,-1.0934878E-2],"split_indices":[19,448,0,0,0],"split_type":[0,0,0,0,0],"sum_hessian":[4.517506E0,2.5401237E0,1.9773824E0,1.384892E0,1.1552316E0],"tree_param":{"num_deleted":"0","num_feature":"517","num_nodes":"5","size_leaf_vector":"1"}},{"base_weights":[5.7882942E-2,4.459111E-2,-2.2825965E-1,2.5307586E-2,-5.1142294E-2],"categories":[],"categories_nodes":[],"categories_segments":[],"categories_sizes":[],"default_left":[0,0,0,0,0],"id":63,"left_children":[1,-1,3,-1,-1],"loss_changes":[7.4864393E-1,0E0,6.7660654E-1,0E0,0E0],"parents":[2147483647,0,0,2,2],"right_children":[2,-1,4,-1,-1],"split_conditions":[4.2930853E-1,4.459111E-2,7.523445E-2,2.5307586E-2,-5.1142294E-2],"split_indices":[515,0,427,0,0],"split_type":[0,0,0,0,0],"sum_hessian":[4.8259244E0,1.8113129E0,3.0146117E0,1.15594E0,1.8586717E0],"tree_param":{"num_deleted":"0","num_feature":"517","num_nodes":"5","size_leaf_vector":"1"}},{"base_weights":[5.7933092E-2,4.309426E-2,-2.8302202E-1,-4.7623236E-2,8.282224E-3],"categories":[],"categories_nodes":[],"categories_segments":[],"categories_sizes":[],"default_left":[0,0,0,0,0],"id":64,"left_children":[1,-1,3,-1,-1],"loss_changes":[8.151772E-1,0E0,2.8339544E-1,0E0,0E0],"parents":[2147483647,0,0,2,2],"right_children":[2,-1,4,-1,-1],"split_conditions":[5.6681436E-1,4.309426E-2,7.2091144E-1,-4.7623236E-2,8.282224E-3],"split_indices":[515,0,296,0,0],"split_type":[0,0,0,0,0],"sum_hessian":[4.4506507E0,1.9993774E0,2.4512734E0,1.4066536E0,1.0446198E0],"tree_param":{"num_deleted":"0","num_feature":"517","num_nodes":"5","size_leaf_vector":"1"}},{"base_weights":[-4.7019925E-2,3.5346378E-2,-2.788532E-1,2.1732226E-2,-5.4017503E-2],"categories":[],"categories_nodes":[],"categories_segments":[],"categories_sizes":[],"default_left":[0,0,0,0,0],"id":65,"left_children":[1,-1,3,-1,-1],"loss_changes":[6.3996804E-1,0E0,6.687467E-1,0E0,0E0],"parents":[2147483647,0,0,2,2],"right_children":[2,-1,4,-1,-1],"split_conditions":[1.1259744E0,3.5346378E-2,1.6253356E0,2.1732226E-2,-5.4017503E-2],"split_indices":[332,0,331,0,0],"split_type":[0,0,0,0,0],"sum_hessian":[4.8312335E0,1.5789709E0,3.2522624E0,1.1800526E0,2.0722096E0],"tree_param":{"num_deleted":"0","num_feature":"517","num_nodes":"5","size_leaf_vector":"1"}},{"base_weights":[4.868511E-2,3.4647283E-1,-3.1095145E-2,2.3487622E-4,5.1007636E-2],"categories":[],"categories_nodes":[],"categories_segments":[],"categories_sizes":[],"default_left":[0,0,0,0,0],"id":66,"left_children":[1,3,-1,-1,-1],"loss_changes":[6.749416E-1,1.8854645E-1,0E0,0E0,0E0],"parents":[2147483647,0,0,1,1],"right_children":[2,4,-1,-1,-1],"split_conditions":[2.568606E-1,6.0581557E-2,-3.1095145E-2,2.3487622E-4,5.1007636E-2],"split_indices":[16,484,0,0,0],"split_type":[0,0,0,0,0],"sum_hessian":[4.296265E0,2.3702466E0,1.9260182E0,1.0906105E0,1.2796361E0],"tree_param":{"num_deleted":"0","num_feature":"517","num_nodes":"5","size_leaf_vector":"1"}},{"base_weights":[9.24571E-2,4.274887E-1,-3.0108032E-1,2.6644503E-3,5.8869332E-2,9.040827E-3,-5.3582408E-2],"categories":[],"categories_nodes":[],"categories_segments":[],"categories_sizes":[],"default_left":[0,0,0,0,0,0,0],"id":67,"left_children":[1,3,5,-1,-1,-1,-1],"loss_changes":[8.4256446E-1,1.9999403E-1,3.3117077E-1,0E0,0E0,0E0,0E0],"parents":[2147483647,0,0,1,1,2,2],"right_children":[2,4,6,-1,-1,-1,-1],"split_conditions":[1.1070809E0,4.8185106E-2,1.1650605E0,2.6644503E-3,5.8869332E-2,9.040827E-3,-5.3582408E-2],"split_indices":[515,235,448,0,0,0,0],"split_type":[0,0,0,0,0,0,0],"sum_hessian":[4.4142556E0,2.3377655E0,2.0764902E0,1.0047307E0,1.3330346E0,1.0088564E0,1.0676339E0],"tree_param":{"num_deleted":"0","num_feature":"517","num_nodes":"7","size_leaf_vector":"1"}},{"base_weights":[2.5045631E-2,3.4891042E-1,-3.0769235E-1,5.4409493E-2,-5.2207022E-5,-4.586277E-2,1.4566147E-3],"categories":[],"categories_nodes":[],"categories_segments":[],"categories_sizes":[],"default_left":[0,0,0,0,0,0,0],"id":68,"left_children":[1,3,5,-1,-1,-1,-1],"loss_changes":[7.0940685E-1,2.2534168E-1,1.665636E-1,0E0,0E0,0E0,0E0],"parents":[2147483647,0,0,1,1,2,2],"right_children":[2,4,6,-1,-1,-1,-1],"split_conditions":[2.6275012E-1,1.1070809E0,1.0665615E-1,5.4409493E-2,-5.2207022E-5,-4.586277E-2,1.4566147E-3],"split_indices":[16,515,45,0,0,0,0],"split_type":[0,0,0,0,0,0,0],"sum_hessian":[4.58684E0,2.2997823E0,2.2870576E0,1.1181368E0,1.1816455E0,1.2693626E0,1.0176952E0],"tree_param":{"num_deleted":"0","num_feature":"517","num_nodes":"7","size_leaf_vector":"1"}},{"base_weights":[-1.4541735E-1,-4.7049317E-1,2.2288291E-1,-1.3628627E-2,-5.6371123E-2,4.2654544E-2,-1.0636937E-2],"categories":[],"categories_nodes":[],"categories_segments":[],"categories_sizes":[],"default_left":[0,0,0,0,0,0,0],"id":69,"left_children":[1,3,5,-1,-1,-1,-1],"loss_changes":[7.407098E-1,2.1072924E-2,2.578357E-1,0E0,0E0,0E0,0E0],"parents":[2147483647,0,0,1,1,2,2],"right_children":[2,4,6,-1,-1,-1,-1],"split_conditions":[7.0462155E-1,2.7663565E-1,1.1422711E-1,-1.3628627E-2,-5.6371123E-2,4.2654544E-2,-1.0636937E-2],"split_indices":[54,136,155,0,0,0,0],"split_type":[0,0,0,0,0,0,0],"sum_hessian":[4.3108554E0,2.1424105E0,2.1684446E0,1.0041895E0,1.1382211E0,1.1571685E0,1.0112762E0],"tree_param":{"num_deleted":"0","num_feature":"517","num_nodes":"7","size_leaf_vector":"1"}},{"base_weights":[-4.3749765E-2,3.0055229E-2,-3.3034346E-1,5.924796E-3,-5.3670403E-2],"categories":[],"categories_nodes":[],"categories_segments":[],"categories_sizes":[],"default_left":[0,0,0,0,0],"id":70,"left_children":[1,-1,3,-1,-1],"loss_changes":[5.91486E-1,0E0,2.8895226E-1,0E0,0E0],"parents":[2147483647,0,0,2,2],"right_children":[2,-1,4,-1,-1],"split_conditions":[7.507638E-1,3.0055229E-2,8.382155E-2,5.924796E-3,-5.3670403E-2],"split_indices":[512,0,427,0,0],"split_type":[0,0,0,0,0],"sum_hessian":[3.988108E0,1.7895318E0,2.198576E0,1.0081551E0,1.190421E0],"tree_param":{"num_deleted":"0","num_feature":"517","num_nodes":"5","size_leaf_vector":"1"}},{"base_weights":[-7.234855E-2,-3.4504125E-1,2.7101412E-2,4.5585986E-3,-5.3806353E-2],"categories":[],"categories_nodes":[],"categories_segments":[],"categories_sizes":[],"default_left":[0,0,0,0,0],"id":71,"left_children":[1,3,-1,-1,-1],"loss_changes":[5.921277E-1,2.8148934E-1,0E0,0E0,0E0],"parents":[2147483647,0,0,1,1],"right_children":[2,4,-1,-1,-1],"split_conditions":[3.9247364E-1,1.6253356E0,2.7101412E-2,4.5585986E-3,-5.3806353E-2],"split_indices":[348,331,0,0,0],"split_type":[0,0,0,0,0],"sum_hessian":[4.3252525E0,2.4079845E0,1.9172682E0,1.0489701E0,1.3590143E0],"tree_param":{"num_deleted":"0","num_feature":"517","num_nodes":"5","size_leaf_vector":"1"}},{"base_weights":[2.2050472E-2,-3.514087E-2,2.1911225E-1,4.16402E-2,-1.4909573E-2],"categories":[],"categories_nodes":[],"categories_segments":[],"categories_sizes":[],"default_left":[0,0,0,0,0],"id":72,"left_children":[1,-1,3,-1,-1],"loss_changes":[4.5792282E-1,0E0,3.5295725E-1,0E0,0E0],"parents":[2147483647,0,0,2,2],"right_children":[2,-1,4,-1,-1],"split_conditions":[1.2459999E0,-3.514087E-2,1.5912563E0,4.16402E-2,-1.4909573E-2],"split_indices":[88,0,34,0,0],"split_type":[0,0,0,0,0],"sum_hessian":[4.1759944E0,1.1718799E0,3.0041146E0,1.870821E0,1.1332936E0],"tree_param":{"num_deleted":"0","num_feature":"517","num_nodes":"5","size_leaf_vector":"1"}},{"base_weights":[-2.3611056E-2,-3.836183E-2,2.3841804E-1,4.7410816E-2,-1.5563353E-2],"categories":[],"categories_nodes":[],"categories_segments":[],"categories_sizes":[],"default_left":[0,0,0,0,0],"id":73,"left_children":[1,-1,3,-1,-1],"loss_changes":[5.802002E-1,0E0,4.0955147E-1,0E0,0E0],"parents":[2147483647,0,0,2,2],"right_children":[2,-1,4,-1,-1],"split_conditions":[3.2862368E-1,-3.836183E-2,1.5977329E0,4.7410816E-2,-1.5563353E-2],"split_indices":[162,0,448,0,0],"split_type":[0,0,0,0,0],"sum_hessian":[4.1810284E0,1.5657638E0,2.6152647E0,1.5093371E0,1.1059275E0],"tree_param":{"num_deleted":"0","num_feature":"517","num_nodes":"5","size_leaf_vector":"1"}},{"base_weights":[-1.8175326E-2,3.9503254E-2,-2.2842652E-1,1.7057456E-2,-4.3525133E-2],"categories":[],"categories_nodes":[],"categories_segments":[],"categories_sizes":[],"default_left":[0,0,0,0,0],"id":74,"left_children":[1,-1,3,-1,-1],"loss_changes":[5.2545536E-1,0E0,4.0052325E-1,0E0,0E0],"parents":[2147483647,0,0,2,2],"right_children":[2,-1,4,-1,-1],"split_conditions":[9.185204E-2,3.9503254E-2,3.419137E-1,1.7057456E-2,-4.3525133E-2],"split_indices":[515,0,316,0,0],"split_type":[0,0,0,0,0],"sum_hessian":[4.0095797E0,1.0557832E0,2.9537966E0,1.068242E0,1.8855546E0],"tree_param":{"num_deleted":"0","num_feature":"517","num_nodes":"5","size_leaf_vector":"1"}},{"base_weights":[-9.960589E-2,2.6593754E-2,-3.9217505E-1,-4.633819E-3,-5.4416496E-2],"categories":[],"categories_nodes":[],"categories_segments":[],"categories_sizes":[],"default_left":[0,0,0,0,0],"id":75,"left_children":[1,-1,3,-1,-1],"loss_changes":[6.3679457E-1,0E0,1.4139575E-1,0E0,0E0],"parents":[2147483647,0,0,2,2],"right_children":[2,-1,4,-1,-1],"split_conditions":[6.006905E-1,2.6593754E-2,2.7273914E-1,-4.633819E-3,-5.4416496E-2],"split_indices":[110,0,433,0,0],"split_type":[0,0,0,0,0],"sum_hessian":[3.9791193E0,1.8094156E0,2.1697037E0,1.0608131E0,1.1088907E0],"tree_param":{"num_deleted":"0","num_feature":"517","num_nodes":"5","size_leaf_vector":"1"}},{"base_weights":[1.4062028E-2,-2.099431E-1,3.5991587E-2,2.0012468E-2,-4.5703646E-2],"categories":[],"categories_nodes":[],"categories_segments":[],"categories_sizes":[],"default_left":[0,0,0,0,0],"id":76,"left_children":[1,3,-1,-1,-1],"loss_changes":[4.5466375E-1,4.563774E-1,0E0,0E0,0E0],"parents":[2147483647,0,0,1,1],"right_children":[2,4,-1,-1,-1],"split_conditions":[2.6451212E-1,1.2298713E0,3.5991587E-2,2.0012468E-2,-4.5703646E-2],"split_indices":[375,34,0,0,0],"split_type":[0,0,0,0,0],"sum_hessian":[3.8933403E0,2.601411E0,1.2919294E0,1.0496057E0,1.5518054E0],"tree_param":{"num_deleted":"0","num_feature":"517","num_nodes":"5","size_leaf_vector":"1"}},{"base_weights":[1.760084E-2,3.76477E-2,-3.4478173E-2],"categories":[],"categories_nodes":[],"categories_segments":[],"categories_sizes":[],"default_left":[0,0,0],"id":77,"left_children":[1,-1,-1],"loss_changes":[7.755206E-1,0E0,0E0],"parents":[2147483647,0,0],"right_children":[2,-1,-1],"split_conditions":[2.6275012E-1,3.76477E-2,-3.4478173E-2],"split_indices":[16,0,0],"split_type":[0,0,0],"sum_hessian":[3.9651365E0,1.9726651E0,1.9924715E0],"tree_param":{"num_deleted":"0","num_feature":"517","num_nodes":"3","size_leaf_vector":"1"}},{"base_weights":[-3.8390923E-2,-3.9257027E-2,2.7825305E-1,4.6720903E-2,-4.3116836E-3],"categories":[],"categories_nodes":[],"categories_segments":[],"categories_sizes":[],"default_left":[0,0,0,0,0],"id":78,"left_children":[1,-1,3,-1,-1],"loss_changes":[6.3811E-1,0E0,2.068771E-1,0E0,0E0],"parents":[2147483647,0,0,2,2],"right_children":[2,-1,4,-1,-1],"split_conditions":[1.0592307E-1,-3.9257027E-2,2.1947608E0,4.6720903E-2,-4.3116836E-3],"split_indices":[257,0,169,0,0],"split_type":[0,0,0,0,0],"sum_hessian":[3.7158449E0,1.6407802E0,2.0750647E0,1.0209637E0,1.0541009E0],"tree_param":{"num_deleted":"0","num_feature":"517","num_nodes":"5","size_leaf_vector":"1"}},{"base_weights":[-1.2802163E-1,-4.0481064E-1,1.9083355E-1,-1.0957766E-2,-4.9787477E-2,3.3466052E-2,-4.895886E-3],"categories":[],"categories_nodes":[],"categories_segments":[],"categories_sizes":[],"default_left":[0,0,0,0,0,0,0],"id":79,"left_children":[1,3,5,-1,-1,-1,-1],"loss_changes":[5.204867E-1,2.8112948E-2,1.2031143E-1,0E0,0E0,0E0,0E0],"parents":[2147483647,0,0,1,1,2,2],"right_children":[2,4,6,-1,-1,-1,-1],"split_conditions":[6.865534E-2,1.3183401E0,8.1043136E-1,-1.0957766E-2,-4.9787477E-2,3.3466052E-2,-4.895886E-3],"split_indices":[385,48,333,0,0,0,0],"split_type":[0,0,0,0,0,0,0],"sum_hessian":[4.022177E0,2.008811E0,2.0133662E0,1.0033298E0,1.0054812E0,1.0112154E0,1.0021508E0],"tree_param":{"num_deleted":"0","num_feature":"517","num_nodes":"7","size_leaf_vector":"1"}},{"base_weights":[5.112801E-2,3.2517943E-1,-3.4609463E-2,5.2162256E-2,8.5876085E-4],"categories":[],"categories_nodes":[],"categories_segments":[],"categories_sizes":[],"default_left":[0,0,0,0,0],"id":80,"left_children":[1,3,-1,-1,-1],"loss_changes":[6.268361E-1,2.0145184E-1,0E0,0E0,0E0],"parents":[2147483647,0,0,1,1],"right_children":[2,4,-1,-1,-1],"split_conditions":[1.1935622E0,8.133727E-1,-3.4609463E-2,5.2162256E-2,8.5876085E-4],"split_indices":[48,512,0,0,0],"split_type":[0,0,0,0,0],"sum_hessian":[3.7243795E0,2.3112037E0,1.4131758E0,1.026592E0,1.2846117E0],"tree_param":{"num_deleted":"0","num_feature":"517","num_nodes":"5","size_leaf_vector":"1"}},{"base_weights":[-8.536234E-2,1.8924433E-1,-3.7356805E-2,3.6863495E-2,-8.569414E-3],"categories":[],"categories_nodes":[],"categories_segments":[],"categories_sizes":[],"default_left":[0,0,0,0,0],"id":81,"left_children":[1,3,-1,-1,-1],"loss_changes":[4.6857792E-1,1.9130112E-1,0E0,0E0,0E0],"parents":[2147483647,0,0,1,1],"right_children":[2,4,-1,-1,-1],"split_conditions":[7.7159977E-1,1.1316304E0,-3.7356805E-2,3.6863495E-2,-8.569414E-3],"split_indices":[157,153,0,0,0],"split_type":[0,0,0,0,0],"sum_hessian":[4.0273705E0,2.238175E0,1.7891955E0,1.1482072E0,1.0899677E0],"tree_param":{"num_deleted":"0","num_feature":"517","num_nodes":"5","size_leaf_vector":"1"}},{"base_weights":[2.0079145E-2,2.891382E-1,-3.2096148E-2,4.194104E-2,1.310166E-3],"categories":[],"categories_nodes":[],"categories_segments":[],"categories_sizes":[],"default_left":[0,0,0,0,0],"id":82,"left_children":[1,3,-1,-1,-1],"loss_changes":[5.218136E-1,1.0740343E-1,0E0,0E0,0E0],"parents":[2147483647,0,0,1,1],"right_children":[2,4,-1,-1,-1],"split_conditions":[8.57992E-1,2.3828305E-1,-3.2096148E-2,4.194104E-2,1.310166E-3],"split_indices":[472,16,0,0,0],"split_type":[0,0,0,0,0],"sum_hessian":[3.6753592E0,2.1395671E0,1.5357921E0,1.1007022E0,1.038865E0],"tree_param":{"num_deleted":"0","num_feature":"517","num_nodes":"5","size_leaf_vector":"1"}},{"base_weights":[-3.6809787E-2,2.2760151E-1,-3.5260517E-2,4.2381804E-2,-1.0217674E-2],"categories":[],"categories_nodes":[],"categories_segments":[],"categories_sizes":[],"default_left":[0,0,0,0,0],"id":83,"left_children":[1,3,-1,-1,-1],"loss_changes":[4.8180172E-1,2.519974E-1,0E0,0E0,0E0],"parents":[2147483647,0,0,1,1],"right_children":[2,4,-1,-1,-1],"split_conditions":[1.1935622E0,1.1070809E0,-3.5260517E-2,4.2381804E-2,-1.0217674E-2],"split_indices":[48,515,0,0,0],"split_type":[0,0,0,0,0],"sum_hessian":[3.8089693E0,2.2251532E0,1.583816E0,1.2162997E0,1.0088534E0],"tree_param":{"num_deleted":"0","num_feature":"517","num_nodes":"5","size_leaf_vector":"1"}},{"base_weights":[-1.1338086E-2,-3.6165528E-2,2.7905717E-1,4.4553794E-2,-2.32996E-3],"categories":[],"categories_nodes":[],"categories_segments":[],"categories_sizes":[],"default_left":[0,0,0,0,0],"id":84,"left_children":[1,-1,3,-1,-1],"loss_changes":[5.973639E-1,0E0,1.7310086E-1,0E0,0E0],"parents":[2147483647,0,0,2,2],"right_children":[2,-1,4,-1,-1],"split_conditions":[1.0592307E-1,-3.6165528E-2,1.0124841E0,4.4553794E-2,-2.32996E-3],"split_indices":[257,0,512,0,0],"split_type":[0,0,0,0,0],"sum_hessian":[3.8799684E0,1.6473294E0,2.2326388E0,1.1344492E0,1.0981896E0],"tree_param":{"num_deleted":"0","num_feature":"517","num_nodes":"5","size_leaf_vector":"1"}},{"base_weights":[-9.7420454E-2,-2.891645E-1,2.9312005E-2,7.947953E-3,-5.2142072E-2],"categories":[],"categories_nodes":[],"categories_segments":[],"categories_sizes":[],"default_left":[0,0,0,0,0],"id":85,"left_children":[1,3,-1,-1,-1],"loss_changes":[4.3640277E-1,3.5420468E-1,0E0,0E0,0E0],"parents":[2147483647,0,0,1,1],"right_children":[2,4,-1,-1,-1],"split_conditions":[2.7196264E-1,1.0976161E0,2.9312005E-2,7.947953E-3,-5.2142072E-2],"split_indices":[375,449,0,0,0],"split_type":[0,0,0,0,0],"sum_hessian":[3.6958454E0,2.652918E0,1.0429273E0,1.2796355E0,1.3732826E0],"tree_param":{"num_deleted":"0","num_feature":"517","num_nodes":"5","size_leaf_vector":"1"}},{"base_weights":[4.418289E-3,2.645877E-1,-3.403702E-2,4.5188107E-2,-4.0467135E-3],"categories":[],"categories_nodes":[],"categories_segments":[],"categories_sizes":[],"default_left":[0,0,0,0,0],"id":86,"left_children":[1,3,-1,-1,-1],"loss_changes":[5.2044255E-1,2.0666638E-1,0E0,0E0,0E0],"parents":[2147483647,0,0,1,1],"right_children":[2,4,-1,-1,-1],"split_conditions":[9.176055E-1,1.0652448E0,-3.403702E-2,4.5188107E-2,-4.0467135E-3],"split_indices":[157,515,0,0,0],"split_type":[0,0,0,0,0],"sum_hessian":[3.7978637E0,2.2971191E0,1.5007446E0,1.1250597E0,1.1720594E0],"tree_param":{"num_deleted":"0","num_feature":"517","num_nodes":"5","size_leaf_vector":"1"}},{"base_weights":[-3.5155755E-2,-3.4555253E-2,2.3015934E-1,4.368205E-2,-9.312193E-3],"categories":[],"categories_nodes":[],"categories_segments":[],"categories_sizes":[],"default_left":[0,0,0,0,0],"id":87,"left_children":[1,-1,3,-1,-1],"loss_changes":[4.8394707E-1,0E0,2.5766635E-1,0E0,0E0],"parents":[2147483647,0,0,2,2],"right_children":[2,-1,4,-1,-1],"split_conditions":[1.0592307E-1,-3.4555253E-2,7.398777E-2,4.368205E-2,-9.312193E-3],"split_indices":[257,0,201,0,0],"split_type":[0,0,0,0,0],"sum_hessian":[3.9107523E0,1.6628876E0,2.2478645E0,1.1570187E0,1.090846E0],"tree_param":{"num_deleted":"0","num_feature":"517","num_nodes":"5","size_leaf_vector":"1"}},{"base_weights":[-5.1704444E-2,3.1376228E-2,-3.1594142E-1,-2.4403865E-3,-4.4977035E-2],"categories":[],"categories_nodes":[],"categories_segments":[],"categories_sizes":[],"default_left":[0,0,0,0,0],"id":88,"left_children":[1,-1,3,-1,-1],"loss_changes":[5.2357805E-1,0E0,1.0799092E-1,0E0,0E0],"parents":[2147483647,0,0,2,2],"right_children":[2,-1,4,-1,-1],"split_conditions":[1.2363716E-1,3.1376228E-2,6.205898E-1,-2.4403865E-3,-4.4977035E-2],"split_indices":[155,0,110,0,0],"split_type":[0,0,0,0,0],"sum_hessian":[3.39524E0,1.346066E0,2.049174E0,1.0167035E0,1.0324707E0],"tree_param":{"num_deleted":"0","num_feature":"517","num_nodes":"5","size_leaf_vector":"1"}},{"base_weights":[-3.641521E-2,2.3808775E-2,-3.306235E-2],"categories":[],"categories_nodes":[],"categories_segments":[],"categories_sizes":[],"default_left":[0,0,0],"id":89,"left_children":[1,-1,-1],"loss_changes":[4.540443E-1,0E0,0E0],"parents":[2147483647,0,0],"right_children":[2,-1,-1],"split_conditions":[4.035876E-1,2.3808775E-2,-3.306235E-2],"split_indices":[84,0,0],"split_type":[0,0,0],"sum_hessian":[3.6473744E0,1.9855565E0,1.6618179E0],"tree_param":{"num_deleted":"0","num_feature":"517","num_nodes":"3","size_leaf_vector":"1"}},{"base_weights":[-1.3488678E-2,-3.1569704E-2,3.1244058E-2],"categories":[],"categories_nodes":[],"categories_segments":[],"categories_sizes":[],"default_left":[0,0,0],"id":90,"left_children":[1,-1,-1],"loss_changes":[5.383547E-1,0E0,0E0],"parents":[2147483647,0,0],"right_children":[2,-1,-1],"split_conditions":[6.458604E-2,-3.1569704E-2,3.1244058E-2],"split_indices":[68,0,0],"split_type":[0,0,0],"sum_hessian":[3.4642088E0,1.8138051E0,1.6504036E0],"tree_param":{"num_deleted":"0","num_feature":"517","num_nodes":"3","size_leaf_vector":"1"}},{"base_weights":[-5.080674E-2,2.7222564E-2,-3.0391306E-1,-4.2395867E-2,-3.1085236E-3],"categories":[],"categories_nodes":[],"categories_segments":[],"categories_sizes":[],"default_left":[0,0,0,0,0],"id":91,"left_children":[1,-1,3,-1,-1],"loss_changes":[4.5629644E-1,0E0,8.619785E-2,0E0,0E0],"parents":[2147483647,0,0,2,2],"right_children":[2,-1,4,-1,-1],"split_conditions":[4.7206074E-1,2.7222564E-2,1.7163162E-1,-4.2395867E-2,-3.1085236E-3],"split_indices":[297,0,163,0,0],"split_type":[0,0,0,0,0],"sum_hessian":[3.5689394E0,1.534703E0,2.0342364E0,1.0279785E0,1.006258E0],"tree_param":{"num_deleted":"0","num_feature":"517","num_nodes":"5","size_leaf_vector":"1"}},{"base_weights":[3.2703623E-2,3.5234693E-2,-3.3189215E-2],"categories":[],"categories_nodes":[],"categories_segments":[],"categories_sizes":[],"default_left":[0,0,0],"id":92,"left_children":[1,-1,-1],"loss_changes":[5.859931E-1,0E0,0E0],"parents":[2147483647,0,0],"right_children":[2,-1,-1],"split_conditions":[1.1070809E0,3.5234693E-2,-3.3189215E-2],"split_indices":[515,0,0],"split_type":[0,0,0],"sum_hessian":[3.0247946E0,1.6296586E0,1.3951359E0],"tree_param":{"num_deleted":"0","num_feature":"517","num_nodes":"3","size_leaf_vector":"1"}},{"base_weights":[-1.1748968E-1,1.9389926E-2,-4.0053904E-2],"categories":[],"categories_nodes":[],"categories_segments":[],"categories_sizes":[],"default_left":[0,0,0],"id":93,"left_children":[1,-1,-1],"loss_changes":[4.250532E-1,0E0,0E0],"parents":[2147483647,0,0],"right_children":[2,-1,-1],"split_conditions":[6.177312E-1,1.9389926E-2,-4.0053904E-2],"split_indices":[110,0,0],"split_type":[0,0,0],"sum_hessian":[2.9414022E0,1.5505599E0,1.3908423E0],"tree_param":{"num_deleted":"0","num_feature":"517","num_nodes":"3","size_leaf_vector":"1"}},{"base_weights":[3.666953E-2,3.1824507E-2,-2.0964438E-2],"categories":[],"categories_nodes":[],"categories_segments":[],"categories_sizes":[],"default_left":[0,0,0],"id":94,"left_children":[1,-1,-1],"loss_changes":[3.6658114E-1,0E0,0E0],"parents":[2147483647,0,0],"right_children":[2,-1,-1],"split_conditions":[8.133727E-1,3.1824507E-2,-2.0964438E-2],"split_indices":[512,0,0],"split_type":[0,0,0],"sum_hessian":[3.3235335E0,1.4145035E0,1.9090302E0],"tree_param":{"num_deleted":"0","num_feature":"517","num_nodes":"3","size_leaf_vector":"1"}},{"base_weights":[-4.749499E-2,-3.505304E-2,2.7676051E-2],"categories":[],"categories_nodes":[],"categories_segments":[],"categories_sizes":[],"default_left":[0,0,0],"id":95,"left_children":[1,-1,-1],"loss_changes":[5.1175714E-1,0E0,0E0],"parents":[2147483647,0,0],"right_children":[2,-1,-1],"split_conditions":[1.0871892E0,-3.505304E-2,2.7676051E-2],"split_indices":[120,0,0],"split_type":[0,0,0],"sum_hessian":[3.220846E0,1.6230143E0,1.5978317E0],"tree_param":{"num_deleted":"0","num_feature":"517","num_nodes":"3","size_leaf_vector":"1"}},{"base_weights":[-6.253261E-2,2.9913837E-2,-2.673686E-1,-4.1366957E-2,2.7540762E-3],"categories":[],"categories_nodes":[],"categories_segments":[],"categories_sizes":[],"default_left":[0,0,0,0,0],"id":96,"left_children":[1,-1,3,-1,-1],"loss_changes":[3.9648408E-1,0E0,1.5185551E-1,0E0,0E0],"parents":[2147483647,0,0,2,2],"right_children":[2,-1,4,-1,-1],"split_conditions":[1.1259744E0,2.9913837E-2,6.748792E-1,-4.1366957E-2,2.7540762E-3],"split_indices":[332,0,440,0,0],"split_type":[0,0,0,0,0],"sum_hessian":[3.2722738E0,1.0167167E0,2.255557E0,1.2384678E0,1.0170894E0],"tree_param":{"num_deleted":"0","num_feature":"517","num_nodes":"5","size_leaf_vector":"1"}},{"base_weights":[6.409041E-2,-2.4257096E-2,2.513936E-1,-5.690453E-3,4.1717783E-2],"categories":[],"categories_nodes":[],"categories_segments":[],"categories_sizes":[],"default_left":[0,0,0,0,0],"id":97,"left_children":[1,-1,3,-1,-1],"loss_changes":[3.133519E-1,0E0,1.882544E-1,0E0,0E0],"parents":[2147483647,0,0,2,2],"right_children":[2,-1,4,-1,-1],"split_conditions":[8.700481E-1,-2.4257096E-2,6.1940694E-1,-5.690453E-3,4.1717783E-2],"split_indices":[229,0,440,0,0],"split_type":[0,0,0,0,0],"sum_hessian":[3.3937511E0,1.174968E0,2.2187831E0,1.0055616E0,1.2132215E0],"tree_param":{"num_deleted":"0","num_feature":"517","num_nodes":"5","size_leaf_vector":"1"}},{"base_weights":[7.0822374E-3,2.207479E-1,-3.1020178E-2,-5.7649156E-3,3.8090084E-2],"categories":[],"categories_nodes":[],"categories_segments":[],"categories_sizes":[],"default_left":[0,0,0,0,0],"id":98,"left_children":[1,3,-1,-1,-1],"loss_changes":[3.701696E-1,1.6657814E-1,0E0,0E0,0E0],"parents":[2147483647,0,0,1,1],"right_children":[2,4,-1,-1,-1],"split_conditions":[9.176055E-1,1.1102226E0,-3.1020178E-2,-5.7649156E-3,3.8090084E-2],"split_indices":[157,229,0,0,0],"split_type":[0,0,0,0,0],"sum_hessian":[3.450232E0,2.2436016E0,1.2066303E0,1.0530684E0,1.1905332E0],"tree_param":{"num_deleted":"0","num_feature":"517","num_nodes":"5","size_leaf_vector":"1"}},{"base_weights":[2.139509E-2,-2.5864145E-2,2.8216263E-2],"categories":[],"categories_nodes":[],"categories_segments":[],"categories_sizes":[],"default_left":[0,0,0],"id":99,"left_children":[1,-1,-1],"loss_changes":[3.8473287E-1,0E0,0E0],"parents":[2147483647,0,0],"right_children":[2,-1,-1],"split_conditions":[4.2711002E-1,-2.5864145E-2,2.8216263E-2],"split_indices":[149,0,0],"split_type":[0,0,0],"sum_hessian":[3.2691722E0,1.5802767E0,1.6888956E0],"tree_param":{"num_deleted":"0","num_feature":"517","num_nodes":"3","size_leaf_vector":"1"}}]},"name":"gbtree"},"learner_model_param":{"base_score":"[6.594828E-1]","boost_from_average":"1","num_class":"0","num_feature":"517","num_target":"1"},"objective":{"name":"binary:logistic","reg_loss_param":{"scale_pos_weight":"1"}}},"version":[3,2,0]}